svm_type c_svc
kernel_type polynomial
degree 3
gamma 2
coef0 0
nr_class 2
total_sv 574
rho 0.194228
label 0 1
nr_sv 291 283
SV
1.543100139609041e-15 0:27.9877 1:0 2:0 3:0 4:0 5:0 6:0 7:5.327951 8:0 9:0 10:0 11:72.241318 12:32.719856 13:0 14:0 15:0 16:0 17:0 18:0 19:5.6235704 20:0 21:86.657974 22:16.293329 23:0 24:0 25:0 26:0 27:0 28:0 29:0 30:0 31:0 32:0 33:0 34:69.188431 35:0 36:0 37:0 38:0 39:0 40:22.86182 41:0 42:0 43:0 44:0 45:0 46:6.8491235 47:0 48:0 49:0 50:0 51:0 52:0 53:0 54:0 55:0 56:0 57:16.599228 58:17.921371 59:0 60:0 61:0 62:0 63:0 64:0 65:0 66:0 67:12.726918 68:0 69:0 70:0 71:0 72:21.921457 73:19.077995 74:0 75:38.896614 76:54.847561 77:0 78:0 79:0 80:0 81:0 82:0 83:0 84:0 85:0 86:0 87:0 88:13.393462 89:0 90:0 91:0 92:0 93:0 94:13.537959 95:16.310032 96:0 97:0 98:0 99:0 100:0 101:16.09617 102:0 103:0 104:0 105:0 106:0 107:0 108:0 109:0 110:0 111:0 112:0 113:0 114:0 115:0 116:0 117:36.792324 118:32.306465 119:0 120:0 121:0 122:6.0556755 123:17.244328 124:43.988457 125:0 126:0 127:20.572573 128:0 129:0 130:0 131:0 132:20.916759 133:0 134:0 135:0 136:15.068143 137:0 138:0 139:0 140:0 141:0 142:0 143:0 144:0 145:0 146:0 147:0 148:0 149:0 150:0 151:0 152:0 153:0 154:0 155:2.302351 156:0 157:0 158:0 159:0 160:0 161:0 162:0 163:6.6401544 164:0 165:0 166:0 167:0 168:0 169:6.8121486 170:0 171:0 172:43.939548 173:0 174:0 175:0 176:2.7789264 177:21.565578 178:0 179:0 180:0 181:18.66906 182:0 183:0 184:8.5906105 185:0 186:99.162895 187:0 188:0 189:0 190:0 191:47.093796 192:0 193:0 194:0 195:0 196:23.163332 197:0 198:0 199:0 200:0 201:0 202:0 203:0 204:0 205:0 206:0 207:0 208:32.840725 209:5.9231277 210:0 211:0 212:0 213:0 214:0 215:0 216:2.2533288 217:0 218:0 219:0 220:0 221:0 222:0 223:0 224:0 225:0 226:0 227:0 228:0 229:21.20751 230:0 231:2.1705079 232:0 233:0 234:0 235:0 236:0 237:0 238:0 239:0 240:0 241:0 242:0 243:0 244:0 245:0 246:0 247:0 248:8.2339449 249:0 250:13.7945 251:0 252:0 253:0 254:0 255:0 256:0 257:0 258:0 259:17.381918 260:0 261:11.360495 262:0 263:0 264:0 265:0 266:26.169024 267:0 268:0 269:8.3958836 270:0 271:0 272:0 273:0 274:0 275:0 276:0 277:0 278:0 279:0 280:0 281:0 282:0 283:0 284:0 285:0 286:0 287:0 288:0 289:0 290:0 291:0 292:0 293:0 294:0 295:25.318613 296:3.0141904 297:33.658504 298:0 299:0 300:0 301:0 302:21.319492 303:0 304:0 305:0 306:0 307:20.289803 308:0 309:0 310:0 311:0 312:11.38263 313:0 314:0 315:0 316:0 317:0 318:0 319:0 320:0 321:13.880857 322:0 323:0 324:0 325:0 326:0 327:0 328:0 329:0 330:0 331:0 332:36.362049 333:0 334:0 335:0 336:0 337:0 338:2.6047001 339:0 340:2.7170138 341:0 342:0 343:0 344:24.757294 345:0 346:0 347:0 348:0 349:0 350:0 351:0 352:0 353:0 354:0 355:0 356:0 357:0 358:0 359:22.3062 360:0.04952338 361:0 362:0 363:0 364:0 365:0 366:0 367:0 368:0 369:4.9549341 370:0 371:0 372:64.52742 373:0 374:26.299885 375:13.166697 376:0 377:0 378:0 379:7.6367741 380:0 381:0 382:0 383:0 384:0 385:0 386:0 387:35.96801 388:0 389:0 390:0 391:0 392:0 393:0 394:0 395:0 396:6.9363346 397:0 398:0 399:0 400:0 401:0 402:0 403:0 404:0 405:0 406:0 407:0 408:0 409:0 410:0 411:0 412:0 413:0 414:41.552727 415:0 416:36.266815 417:5.8428664 418:0 419:0 420:0 421:0 422:13.830103 423:0 424:0 425:0 426:0 427:0 428:0 429:0 430:0 431:0 432:1.0108066 433:0 434:0 435:0 436:0 437:0 438:0 439:0 440:19.686062 441:19.236147 442:0 443:0 444:0 445:12.950811 446:0 447:36.948906 448:0 449:0 450:0 451:0 452:0 453:31.057913 454:2.6376653 455:0 456:0 457:0 458:10.273008 459:0 460:0 461:0 462:0 463:0 464:0 465:0 466:0 467:0 468:0 469:0 470:0 471:0 472:0 473:0 474:0 475:0 476:0 477:0 478:0 479:0 480:0 481:0 482:0 483:16.867619 484:0 485:0 486:0 487:0 488:0 489:38.272976 490:0 491:0 492:0 493:0 494:0 495:0 496:4.1757331 497:25.415485 498:47.567017 499:0 500:28.585096 501:0 502:0 503:0 504:0 505:0 506:0 507:0 508:0 509:0 510:0 511:0 
4.034355853875301e-17 0:33.119034 1:0 2:0 3:0 4:0 5:9.8245268 6:0 7:0 8:0 9:0 10:0 11:84.070465 12:17.053877 13:0 14:0 15:2.5375657 16:0 17:0 18:0 19:0 20:0 21:50.444015 22:45.538349 23:0 24:4.1127319 25:0 26:0 27:0 28:0 29:0 30:0 31:0 32:0 33:0 34:70.260231 35:0 36:0 37:0 38:1.8838048 39:0 40:43.789814 41:0 42:0 43:0 44:0 45:0 46:14.582577 47:0 48:0 49:0 50:0 51:0 52:0 53:0 54:0 55:0 56:0 57:8.7347221 58:13.287209 59:0 60:0 61:0 62:0 63:0 64:0 65:0 66:0 67:32.48735 68:0 69:0 70:0 71:0 72:21.644871 73:13.296534 74:0 75:123.53198 76:94.483528 77:0 78:0 79:0 80:0 81:21.578785 82:0 83:0 84:0 85:5.2144504 86:0 87:0 88:4.518661 89:0 90:4.468297 91:0 92:9.0803747 93:0 94:4.9708977 95:8.4780302 96:0 97:0 98:0 99:0 100:0 101:7.9845028 102:2.883698 103:0 104:0 105:0 106:0 107:0 108:0 109:0 110:0 111:0 112:0 113:0 114:0 115:0 116:0 117:18.135311 118:24.015677 119:0 120:0 121:0 122:2.0999081 123:26.206274 124:5.4689412 125:0 126:0 127:32.447144 128:0 129:0 130:0 131:0 132:24.385368 133:0 134:0 135:0 136:16.091951 137:0 138:0 139:0 140:0 141:20.685898 142:0 143:3.3654046 144:6.0763288 145:35.668701 146:0 147:0 148:0 149:0 150:0 151:0 152:0 153:0 154:0 155:5.073072 156:0 157:0 158:0 159:7.6373558 160:0 161:4.3305206 162:0 163:15.318577 164:0 165:0 166:0 167:0 168:0 169:14.804465 170:0 171:0 172:35.579433 173:0 174:0 175:0 176:0 177:80.029007 178:0 179:16.136311 180:0 181:78.228691 182:0 183:0 184:10.940317 185:10.664055 186:47.813709 187:0 188:0 189:0 190:0 191:43.812538 192:0 193:0 194:0 195:0 196:6.8528461 197:0 198:0 199:0 200:0 201:0 202:4.7530136 203:51.814777 204:0 205:0 206:0 207:0 208:8.3244972 209:51.069153 210:0 211:0 212:0 213:0 214:0 215:0 216:0 217:0 218:0 219:0 220:0 221:0 222:4.5196252 223:0 224:0 225:14.473419 226:0 227:0 228:0 229:22.23604 230:0 231:13.113533 232:0 233:0 234:0 235:0 236:0 237:0.44304517 238:0 239:0 240:0 241:0 242:0 243:0 244:0 245:0 246:0 247:0 248:0 249:0 250:0 251:0 252:0 253:0 254:0 255:0 256:0 257:0 258:0 259:0 260:0 261:39.154766 262:0 263:0 264:0 265:0 266:0.51783895 267:0 268:0 269:0 270:0 271:0 272:0 273:0 274:0 275:0 276:0 277:0 278:0 279:0 280:0 281:0 282:0 283:0 284:0 285:0 286:0 287:0 288:0 289:0 290:0 291:0 292:0 293:0 294:1.7527732 295:24.728949 296:0 297:81.264488 298:0 299:0 300:0 301:0 302:17.003969 303:0 304:0 305:0 306:0 307:0 308:0 309:0 310:0 311:0 312:0 313:0 314:0 315:0 316:0 317:0 318:0 319:0 320:0 321:0.89546311 322:0 323:0 324:0 325:0 326:0 327:0 328:0 329:0 330:0 331:0 332:31.776375 333:0 334:0 335:0 336:0 337:0 338:0 339:0 340:57.787476 341:0 342:0 343:0 344:22.958843 345:0 346:0 347:0 348:0 349:0 350:0 351:0 352:0 353:0 354:0 355:0 356:0 357:0 358:0 359:4.6719465 360:0 361:0 362:0 363:0 364:5.5118952 365:0 366:0 367:0 368:0 369:0 370:0 371:0 372:58.681694 373:0 374:47.182724 375:0 376:0 377:0 378:0 379:0.39779594 380:0 381:0 382:0 383:0 384:5.295475 385:0 386:0 387:0.93997449 388:0 389:0 390:0 391:14.92248 392:22.980366 393:0 394:0 395:0 396:3.4989126 397:0 398:0 399:0 400:0 401:0 402:0 403:0 404:0 405:0 406:0 407:0 408:0 409:0 410:0 411:0 412:0 413:0 414:42.321205 415:0 416:45.049915 417:0 418:0 419:0 420:0 421:0 422:8.720705 423:0 424:0 425:0 426:0 427:0 428:0 429:0 430:0 431:0 432:1.5169253 433:0 434:0 435:0 436:0 437:0 438:0 439:0 440:44.559673 441:18.469912 442:0 443:0 444:0 445:4.9947176 446:0 447:28.931709 448:0 449:0 450:0 451:0 452:0 453:0 454:0 455:0 456:4.6470046 457:0 458:0 459:0 460:0 461:0 462:0 463:0 464:0 465:0 466:0 467:0 468:0 469:0 470:0 471:0 472:0 473:0 474:0 475:0 476:0 477:0 478:0 479:0 480:0 481:0 482:0 483:18.087051 484:8.2413111 485:0 486:0 487:0 488:0 489:9.8889685 490:0 491:0 492:0 493:0 494:0 495:0 496:7.9078026 497:26.513021 498:83.265877 499:0 500:47.982269 501:0 502:0 503:0 504:0 505:0 506:0 507:0 508:0 509:0 510:0 511:0 
5.851915642625198e-15 0:0 1:0 2:9.0087852 3:0 4:0 5:0 6:0 7:0 8:0 9:0 10:0 11:0 12:35.135353 13:0 14:22.862881 15:0 16:0 17:0 18:0 19:0.45068696 20:0 21:4.621037 22:0 23:0 24:0 25:0 26:0 27:0 28:0 29:0 30:0 31:0 32:0 33:0 34:39.944969 35:0 36:0 37:0 38:0 39:0 40:0 41:0 42:0 43:0 44:0 45:0 46:1.9777004 47:0 48:0 49:0 50:24.052608 51:0 52:0 53:0 54:0 55:12.256735 56:0 57:2.052989 58:12.82764 59:0 60:0 61:0 62:0 63:0 64:0 65:0 66:0 67:4.366241 68:0 69:0 70:0 71:0 72:9.984128 73:37.318977 74:0 75:0 76:6.5981007 77:0 78:0 79:0 80:0 81:0 82:0.23114903 83:0 84:0 85:6.9252911 86:0 87:0 88:21.01486 89:0 90:0 91:0 92:0 93:0 94:0 95:14.318097 96:0 97:0 98:0 99:0 100:0 101:36.054462 102:0 103:0 104:0 105:0 106:0 107:0 108:0 109:0 110:0 111:0 112:0 113:0.23732936 114:0 115:0 116:0 117:24.825287 118:1.0326036 119:0 120:0 121:0 122:0 123:30.897036 124:21.77669 125:20.506371 126:0 127:0 128:0 129:0 130:0 131:0 132:2.7881699 133:0 134:0 135:0 136:0 137:0 138:0 139:0 140:0 141:0 142:0 143:0 144:0 145:0 146:0 147:0 148:0 149:0 150:0 151:0 152:0 153:0 154:0 155:22.243153 156:0 157:0 158:0 159:0 160:0 161:0 162:0 163:13.064735 164:0 165:0 166:0 167:0 168:8.2496786 169:0 170:0 171:0 172:37.96833 173:0 174:0 175:0 176:12.14946 177:0 178:0 179:0 180:0 181:0 182:0 183:0 184:0 185:0 186:49.50182 187:0 188:0 189:0 190:0 191:0 192:0 193:0 194:0 195:0 196:21.402914 197:0 198:0 199:0 200:0 201:0 202:0 203:0 204:0 205:0 206:0 207:0 208:0 209:0 210:0 211:0 212:0 213:0 214:3.5863223 215:0 216:27.103569 217:0 218:0 219:0 220:0 221:0 222:0 223:0 224:0 225:2.2956963 226:0 227:0 228:0 229:12.63864 230:0 231:0 232:0 233:0 234:0 235:0 236:0 237:0 238:0 239:0 240:0 241:0 242:0 243:58.920551 244:0 245:0 246:0 247:0 248:0 249:0 250:7.3762889 251:0 252:0 253:7.3366432 254:0 255:0 256:0 257:0 258:0 259:13.862198 260:0 261:10.826392 262:0 263:0 264:5.2417631 265:0 266:38.563297 267:0 268:1.0649648 269:0 270:0 271:0 272:0 273:0 274:0 275:0 276:0 277:0 278:0 279:0 280:0 281:6.6583352 282:0 283:9.5869598 284:0 285:0 286:0 287:0 288:0 289:0 290:0 291:0 292:0 293:0 294:0 295:19.097885 296:23.759926 297:0 298:0 299:0 300:13.248535 301:0 302:0 303:0 304:0 305:0 306:0 307:29.543766 308:0 309:0 310:0 311:0 312:11.955975 313:0 314:0 315:0 316:0.43142641 317:1.0212907 318:0 319:0 320:0 321:2.9476671 322:0 323:0 324:0 325:0 326:0 327:0 328:0 329:0 330:0 331:0 332:0 333:0 334:0 335:0 336:0 337:0 338:0 339:0 340:0 341:0 342:0 343:0 344:16.688562 345:0 346:0 347:0 348:0 349:0 350:0 351:0 352:0 353:0 354:0 355:0 356:20.712273 357:0 358:0 359:11.667777 360:22.52426 361:0 362:0 363:0 364:0 365:0 366:0 367:0 368:0 369:26.172039 370:0 371:0 372:18.56354 373:0 374:54.804317 375:0 376:0 377:0 378:0 379:3.5713511 380:0.36540863 381:36.31184 382:0 383:0 384:0 385:0 386:0 387:0 388:2.2636459 389:0 390:0 391:0 392:0 393:0 394:0 395:0 396:0 397:0 398:6.9448009 399:0 400:0 401:0 402:0 403:0 404:0 405:0 406:0 407:0 408:10.74748 409:0 410:0 411:0 412:0 413:0 414:42.034073 415:0 416:20.702808 417:1.0957441 418:0 419:0 420:0 421:0 422:0 423:0 424:0 425:0 426:0 427:0 428:0 429:0 430:0 431:0 432:0 433:0 434:0 435:0 436:0 437:0 438:0 439:15.371097 440:12.629395 441:16.304634 442:0 443:0 444:5.6193662 445:4.3646817 446:0 447:0 448:0 449:0 450:0 451:0 452:0 453:39.502579 454:0 455:0 456:0 457:0 458:0 459:0 460:0 461:0 462:0 463:0 464:0 465:0 466:0 467:0 468:0 469:0 470:0 471:0 472:0 473:0 474:27.505131 475:0 476:0 477:0 478:0 479:0 480:0 481:0 482:0 483:7.8928671 484:0 485:0 486:0 487:11.24752 488:0 489:0 490:0.51930785 491:0 492:0 493:0 494:0 495:0 496:0 497:0 498:0 499:0 500:0 501:0 502:0 503:0 504:0 505:0 506:0 507:0 508:0 509:0 510:0 511:0 
1.645159559231575e-15 0:0 1:0 2:9.36269 3:0 4:0 5:0 6:0 7:0 8:0 9:0 10:0 11:0 12:7.4314842 13:0 14:20.601141 15:0 16:0 17:0 18:0 19:0 20:0 21:0 22:0 23:0 24:0 25:0 26:0 27:0 28:2.3527415 29:0 30:0 31:0 32:0 33:0 34:15.618027 35:0 36:0 37:0 38:0 39:0 40:3.6390851 41:0 42:0 43:0 44:0 45:0 46:0 47:0 48:24.864857 49:0 50:4.7210679 51:0 52:0 53:0 54:0 55:0.60644078 56:0 57:0 58:12.586293 59:0 60:0 61:0 62:0 63:0 64:0 65:0 66:0 67:15.883621 68:0 69:0 70:0 71:0 72:5.8984594 73:30.920115 74:0 75:0 76:37.597839 77:0 78:0 79:0 80:0 81:29.48118 82:0 83:22.336969 84:0 85:0 86:0 87:0 88:6.7842011 89:0 90:0 91:0 92:0 93:0 94:16.837843 95:0.23775646 96:0 97:0 98:0 99:5.2333355 100:0 101:0 102:0 103:0 104:0 105:0 106:0 107:0 108:0 109:0 110:4.7577066 111:0 112:0 113:0 114:0 115:0 116:0 117:28.823757 118:0 119:0 120:0 121:0 122:0 123:34.749603 124:0 125:0 126:0 127:0 128:0 129:0 130:0 131:0 132:0 133:0 134:0 135:0 136:0 137:0 138:0 139:0 140:0 141:0 142:0 143:0 144:0 145:0 146:0 147:0 148:0 149:3.8118165 150:0 151:0 152:0 153:0 154:0 155:11.505583 156:0 157:0 158:0 159:0 160:0 161:0 162:0 163:0 164:0 165:0 166:0 167:0 168:39.433357 169:13.070464 170:0 171:0 172:11.100012 173:0 174:0 175:0 176:0.087023139 177:13.373752 178:0 179:25.528837 180:0 181:0 182:0 183:0 184:0 185:0 186:0 187:0 188:0 189:0 190:0 191:0 192:0 193:0 194:0 195:0 196:0 197:0 198:0 199:0 200:0 201:0 202:0 203:0 204:0 205:20.14142 206:0 207:0 208:0 209:0 210:0 211:0 212:0 213:0 214:0 215:0 216:46.218765 217:0 218:0 219:0 220:0 221:0 222:0 223:0 224:0 225:3.8528891 226:0 227:0 228:0 229:0 230:0 231:0 232:0 233:0 234:0 235:0 236:0 237:0 238:0 239:0 240:0 241:0 242:0 243:53.038754 244:0 245:0 246:0 247:7.7526889 248:0 249:0 250:0 251:0 252:0 253:35.728973 254:0 255:0 256:0 257:0 258:0 259:0 260:0 261:32.273067 262:0 263:0 264:0 265:0 266:0 267:0 268:0 269:0 270:0 271:0 272:0 273:0 274:0 275:0 276:0 277:0 278:0 279:0 280:3.9651113 281:8.0745029 282:0 283:0 284:0 285:0 286:0 287:0 288:0 289:0 290:0 291:0 292:0 293:0 294:31.937328 295:0 296:0 297:0 298:0 299:0 300:0 301:0 302:0 303:0 304:0 305:0 306:0 307:0 308:0 309:0 310:0 311:0 312:0 313:0 314:0 315:0 316:0 317:48.623211 318:0 319:0 320:0 321:0 322:0 323:0 324:0 325:0 326:0 327:0 328:0 329:0 330:0 331:0 332:0 333:0 334:0 335:0 336:0 337:0 338:8.2570229 339:0 340:0 341:0 342:0 343:5.4763894 344:11.991916 345:0 346:0 347:0 348:0 349:8.0509167 350:0 351:0 352:0 353:0 354:0 355:0 356:0 357:0 358:0 359:19.010044 360:0 361:0 362:0 363:0 364:0 365:0 366:0 367:0 368:0 369:0 370:0 371:0 372:1.0410745 373:0 374:49.667149 375:0 376:0 377:0 378:0 379:0 380:0 381:0 382:0 383:0 384:0 385:0 386:0.21555767 387:0 388:2.6961727 389:29.048212 390:0 391:0 392:25.41016 393:0 394:0 395:0 396:0 397:0 398:7.8827944 399:0 400:0 401:0 402:0 403:0 404:0 405:0 406:0 407:0 408:13.336484 409:0 410:0 411:0 412:0 413:0 414:70.04908 415:0 416:6.9336748 417:0 418:0 419:0 420:0 421:0 422:0 423:0 424:0 425:0 426:0 427:0 428:0 429:0 430:3.8847477 431:0 432:14.992594 433:0 434:0 435:0 436:0 437:0 438:0 439:3.8235831 440:4.3052773 441:25.414188 442:0 443:0 444:20.762562 445:14.242476 446:0 447:0 448:0 449:0 450:0 451:0 452:0 453:0 454:0 455:29.350708 456:0 457:0 458:0 459:0 460:0 461:0 462:0 463:12.485257 464:0 465:0 466:0 467:0 468:0 469:0 470:0 471:15.09718 472:0 473:0 474:38.641502 475:0 476:0 477:0 478:0 479:0 480:0 481:0 482:0 483:0 484:0 485:0 486:0 487:0 488:0 489:0 490:0 491:0 492:0 493:0 494:0 495:0 496:0 497:0 498:0 499:0 500:0 501:0 502:0 503:0 504:0 505:0 506:0 507:0 508:0 509:0 510:0 511:0 
1.242078194859036e-15 0:0 1:0 2:0 3:0 4:0 5:0 6:0 7:54.023643 8:0 9:0 10:0 11:11.295953 12:48.350357 13:0 14:0 15:0 16:0 17:0 18:0 19:0 20:0 21:64.061531 22:0 23:0 24:0 25:0 26:0 27:0 28:0 29:0 30:0 31:0 32:0 33:0 34:54.883957 35:0 36:0 37:0 38:0 39:0 40:6.6502185 41:0 42:0 43:0 44:0 45:0 46:16.814528 47:0 48:0 49:0 50:6.073462 51:0 52:0 53:0 54:0 55:1.2247896 56:0 57:0 58:17.638723 59:0 60:0 61:0 62:0 63:0 64:0 65:0 66:0 67:0 68:0 69:0 70:0 71:0 72:0 73:25.095949 74:0 75:37.637978 76:21.287756 77:0 78:0 79:0 80:0 81:0 82:6.5151043 83:0 84:0 85:0 86:0 87:0 88:27.348202 89:0 90:0 91:0 92:0 93:0 94:0 95:0.19098398 96:0 97:0 98:0 99:0 100:0 101:0 102:0 103:0 104:0 105:0 106:0 107:0 108:0 109:0 110:5.4629722 111:0 112:0 113:0 114:0 115:0 116:0 117:29.642172 118:37.195221 119:0 120:0 121:0 122:0 123:10.131345 124:47.024315 125:0 126:0 127:0 128:0 129:0 130:0 131:0 132:0 133:0 134:0 135:0 136:0 137:0 138:0 139:0 140:0 141:0 142:0 143:0 144:0 145:0 146:0 147:0 148:0 149:0 150:0 151:0 152:0 153:0 154:0 155:12.806367 156:0 157:0 158:0 159:0 160:0 161:0 162:0 163:0 164:0 165:0 166:0 167:0 168:0 169:0 170:0 171:0 172:54.714703 173:0 174:0 175:0 176:0 177:0 178:0 179:0 180:0 181:0 182:0 183:0 184:0 185:0 186:112.29647 187:0 188:0 189:0 190:0 191:21.448814 192:0 193:0 194:0 195:0 196:4.3627453 197:0 198:0 199:0 200:0 201:0 202:0 203:0 204:0 205:0 206:0 207:0 208:0 209:0 210:0 211:0 212:0 213:0 214:2.0728838 215:0 216:5.3400979 217:0 218:0 219:0 220:0 221:0 222:0 223:0 224:0 225:0 226:0 227:0 228:0 229:7.748662 230:0 231:35.892921 232:0 233:0 234:0 235:0 236:0 237:0 238:0 239:0 240:0 241:0 242:0 243:0 244:0 245:0 246:0 247:0 248:0 249:0 250:23.66308 251:0 252:0 253:0 254:0 255:0 256:0 257:0 258:0 259:8.082922 260:0 261:0 262:0 263:0 264:0 265:0 266:65.52742 267:0 268:0 269:0 270:0 271:0 272:0 273:0 274:0 275:0 276:0 277:0 278:0 279:0 280:0 281:0 282:0 283:0 284:0 285:0 286:0 287:0 288:0 289:0 290:0 291:0 292:0 293:0 294:0 295:0 296:16.201275 297:0 298:0 299:0 300:0 301:0 302:0 303:0 304:0 305:0 306:0 307:64.607033 308:0 309:0 310:0 311:0 312:0 313:0 314:0 315:0 316:0 317:0 318:0 319:0 320:0 321:4.9551024 322:0 323:0 324:0 325:0 326:0 327:0 328:0 329:0 330:0 331:0 332:0 333:0 334:0 335:0 336:0 337:0 338:0 339:0 340:2.5996773 341:0 342:0 343:0 344:43.374386 345:0 346:0 347:0 348:0 349:0 350:0 351:0 352:0 353:0 354:0 355:0 356:6.2259173 357:0 358:0 359:17.426311 360:0 361:0 362:0 363:0 364:0 365:0 366:0 367:0 368:17.596048 369:33.400188 370:0 371:0 372:39.033012 373:0 374:26.441727 375:0 376:0 377:0 378:0 379:0 380:0 381:0 382:0 383:0 384:0 385:0 386:0 387:11.022207 388:0 389:0 390:0 391:0 392:1.1127436 393:0 394:0 395:0 396:0 397:0 398:0 399:0 400:0 401:0 402:0 403:0 404:0 405:0 406:0 407:0 408:0 409:0 410:0 411:0 412:0 413:2.9163313 414:61.824631 415:0 416:20.737041 417:0 418:0 419:0 420:0 421:0 422:0 423:0 424:0 425:0 426:0 427:0 428:0 429:0 430:0 431:0 432:0.82228041 433:0 434:0 435:0 436:0 437:0 438:0 439:0 440:0 441:27.834047 442:0 443:0 444:0 445:12.102202 446:0 447:0 448:0 449:0 450:0 451:0 452:0 453:65.003647 454:0 455:0 456:0 457:0 458:3.8276808 459:0 460:0 461:0 462:0 463:0 464:0 465:0 466:0 467:0 468:0 469:0 470:0 471:0 472:0 473:0 474:27.71549 475:0 476:0 477:0 478:0 479:0 480:0 481:0 482:0 483:9.140564 484:0 485:0 486:0 487:0 488:0 489:31.25799 490:0 491:0 492:0 493:0 494:0 495:0 496:0 497:0 498:13.422243 499:0 500:0 501:0 502:0 503:0 504:7.1202207 505:0 506:0 507:0 508:0 509:0 510:0 511:0 
4.530321682118003e-16 0:0 1:0 2:6.2315884 3:0 4:0 5:0 6:0 7:0 8:0 9:0 10:0 11:0 12:20.189772 13:0 14:0 15:0 16:0 17:0 18:0 19:0 20:0 21:0 22:0 23:0 24:0 25:0 26:0 27:0 28:8.0185127 29:0 30:0 31:0 32:0 33:0 34:29.81093 35:0 36:0 37:0 38:0 39:0 40:3.7380786 41:0 42:0 43:0 44:0 45:0 46:0 47:0 48:11.662405 49:0 50:7.3253016 51:0 52:0 53:0 54:0 55:0 56:0 57:0 58:8.4400034 59:0 60:0 61:0 62:0 63:0 64:0 65:0 66:0 67:0 68:0 69:0 70:0 71:0 72:16.488596 73:33.16573 74:0 75:3.4465873 76:40.181953 77:0 78:0 79:0 80:0 81:3.12603 82:0 83:10.872701 84:0 85:0 86:0 87:0 88:36.803246 89:0 90:0 91:0 92:0 93:0 94:0.85741639 95:0 96:0 97:0 98:0 99:0 100:0 101:0 102:0 103:0 104:0 105:0 106:0 107:0 108:0 109:0 110:13.593818 111:0 112:0 113:0 114:0 115:0 116:0 117:14.003439 118:12.363215 119:0 120:0 121:0 122:0 123:5.6192741 124:0 125:0 126:0 127:12.70748 128:0 129:0 130:0 131:0 132:0 133:0 134:0 135:0 136:0 137:0 138:0 139:0 140:0 141:0 142:0 143:0 144:0 145:0 146:0 147:0 148:0 149:0 150:0 151:0 152:0 153:0 154:0 155:16.630705 156:0 157:0 158:0 159:0 160:0 161:0 162:0 163:1.3861401 164:0 165:0 166:0 167:0 168:29.87212 169:6.3546624 170:0 171:0 172:19.764784 173:0 174:0 175:0 176:0 177:0 178:0 179:6.0924292 180:0 181:0 182:0 183:0 184:0 185:0 186:14.617053 187:0 188:0 189:0 190:0 191:0 192:0 193:0 194:0 195:0 196:0 197:0 198:0 199:0 200:0 201:0 202:0 203:0 204:0 205:52.597561 206:0 207:0 208:0 209:0 210:0 211:0 212:0 213:0 214:0 215:0 216:26.021467 217:0 218:0 219:0 220:0 221:0 222:0 223:0 224:0 225:4.2708535 226:0 227:0 228:0 229:0 230:0 231:0 232:0 233:0 234:0 235:0 236:0 237:0 238:0 239:0 240:0 241:0 242:0 243:18.07793 244:0 245:0 246:0 247:0 248:0 249:0 250:2.2670794 251:0 252:0 253:14.584015 254:0 255:0 256:0 257:0 258:0 259:0 260:0 261:16.321413 262:0 263:0 264:0 265:0 266:12.894737 267:0 268:0 269:8.4338207 270:0 271:0 272:0 273:0 274:0 275:0 276:0 277:0 278:0 279:0 280:0 281:8.7785959 282:0 283:0 284:0 285:0 286:0 287:0 288:0 289:0 290:0 291:0 292:0 293:0 294:24.199499 295:0 296:9.9478273 297:0 298:0 299:0 300:0 301:0 302:0 303:0 304:0 305:0 306:0 307:7.6904192 308:0 309:0 310:0 311:0 312:0 313:0 314:0 315:0 316:0 317:0 318:1.3155591 319:0 320:0 321:3.1281207 322:0 323:0 324:0 325:0 326:0 327:0 328:0 329:0 330:0 331:0 332:0 333:0 334:0 335:0 336:0 337:0 338:12.060976 339:0 340:0 341:0 342:0 343:11.089235 344:24.067047 345:0 346:0 347:0 348:0 349:0 350:0 351:0 352:0 353:0 354:0 355:0 356:0 357:0 358:0 359:22.566212 360:13.342637 361:0 362:0 363:0 364:0 365:2.5910535 366:0 367:0 368:0 369:0 370:0 371:0 372:11.471531 373:0 374:81.736038 375:0 376:0 377:0 378:0 379:0 380:0 381:0 382:0 383:0 384:0 385:0 386:0 387:8.7473545 388:4.6106501 389:0 390:0 391:0 392:13.303634 393:0 394:0 395:0 396:0 397:0 398:0 399:0 400:0 401:0 402:0 403:0 404:1.7970035 405:0 406:0 407:6.1527238 408:0 409:0 410:0 411:0 412:0 413:0 414:93.361008 415:0 416:0 417:0 418:0 419:0 420:0 421:0 422:0 423:0 424:0 425:0 426:0 427:0 428:7.984756 429:0 430:0 431:0 432:30.929718 433:0 434:0 435:0 436:0 437:0 438:0 439:0 440:7.8550053 441:16.120924 442:0 443:0 444:1.378183 445:28.981562 446:0 447:0 448:0 449:0 450:0 451:0 452:0 453:0 454:0 455:1.8771991 456:0 457:0 458:0 459:0 460:0 461:0 462:0 463:0 464:0 465:0 466:0 467:0 468:0 469:0 470:0 471:4.751523 472:0 473:0 474:14.528628 475:0 476:0 477:0 478:0 479:0 480:0 481:0 482:0 483:15.25299 484:0 485:0 486:0 487:0 488:0 489:0 490:0 491:0 492:0 493:0 494:0 495:0 496:0 497:0 498:0 499:0 500:0 501:0 502:0 503:0 504:0 505:0 506:0 507:0 508:0 509:0 510:0 511:0 
4.025373689335808e-15 0:0 1:0 2:7.2192917 3:0 4:0 5:0 6:0 7:49.756657 8:0 9:0 10:0 11:0 12:44.158325 13:0 14:0 15:0 16:0 17:0 18:0 19:3.3343348 20:0 21:53.449989 22:0 23:0 24:0 25:0 26:0 27:0 28:0 29:0 30:0 31:0 32:0 33:0 34:36.194534 35:0 36:0 37:0 38:0 39:0 40:10.226769 41:0 42:0 43:0 44:0 45:0 46:13.913778 47:0 48:0 49:0 50:11.537822 51:0 52:0 53:0 54:0 55:0 56:0 57:0 58:28.52029 59:0 60:0 61:0 62:0 63:0 64:0 65:0 66:0 67:0 68:0 69:0 70:0 71:0 72:0 73:39.688427 74:0 75:60.133316 76:20.154331 77:0 78:0 79:0 80:0 81:0 82:4.1632595 83:0 84:0 85:0 86:0 87:0 88:35.901184 89:0 90:0 91:0 92:0 93:0 94:0 95:0 96:0 97:0 98:0 99:0 100:0 101:0 102:0 103:0 104:0 105:0 106:0 107:0 108:0 109:0 110:6.2013621 111:0 112:0 113:0 114:0 115:0 116:0 117:32.075878 118:52.711288 119:0 120:0 121:0 122:0 123:0 124:41.855145 125:0 126:0 127:0 128:0 129:0 130:0 131:0 132:0 133:0 134:0 135:0 136:0 137:0 138:0 139:0 140:0 141:0 142:0 143:0 144:0 145:0 146:0 147:0 148:0 149:0 150:0 151:0 152:0 153:0 154:0 155:10.279131 156:0 157:0 158:0 159:0 160:0 161:0 162:0 163:0 164:0 165:0 166:0 167:0 168:0 169:0 170:0 171:0 172:61.658413 173:0 174:0 175:0 176:0 177:0 178:0 179:0 180:0 181:0 182:0 183:0 184:0 185:0 186:83.517967 187:0 188:0 189:0 190:0 191:14.179298 192:0 193:0 194:0 195:0 196:0.37577313 197:0 198:0 199:0 200:0 201:0 202:0 203:0 204:0 205:0 206:0 207:0 208:0 209:0 210:0 211:0 212:0 213:0 214:0 215:0 216:2.5419691 217:0 218:0 219:0 220:0 221:0 222:0 223:0 224:0 225:0 226:0 227:0 228:0 229:0 230:0 231:0 232:0 233:0 234:0 235:0 236:0 237:0 238:0 239:0 240:0 241:0 242:0 243:0 244:0 245:0 246:0 247:0 248:0 249:0 250:30.327869 251:0 252:0 253:0 254:0 255:0 256:0 257:0 258:0 259:0 260:0 261:0 262:0 263:0 264:0 265:0 266:42.402851 267:0 268:0 269:0 270:0 271:0 272:0 273:0 274:0 275:0 276:0 277:0 278:0 279:0 280:0 281:0 282:0 283:0 284:0 285:0 286:0 287:0 288:0 289:0 290:0 291:0 292:0 293:0 294:0 295:0 296:16.715172 297:0 298:0 299:0 300:0 301:0 302:0 303:0 304:0 305:0 306:0 307:86.383347 308:0 309:0 310:0 311:0 312:0 313:0 314:0 315:0 316:0 317:0 318:0 319:0 320:0 321:0 322:0 323:0 324:0 325:0 326:0 327:0 328:0 329:0 330:0 331:0 332:0 333:0 334:0 335:0 336:0 337:0 338:0 339:0 340:11.279975 341:0 342:0 343:5.2896886 344:47.843811 345:0 346:0 347:0 348:0 349:0 350:0 351:0 352:0 353:0 354:0 355:0 356:0 357:0 358:0 359:21.306131 360:0 361:0 362:0 363:0 364:0 365:0 366:0 367:0 368:10.02522 369:24.617096 370:0 371:0 372:56.051601 373:0 374:0 375:0 376:0 377:0 378:0 379:0 380:0 381:0 382:0 383:0 384:0 385:0 386:0 387:23.231556 388:0 389:0 390:0 391:0 392:1.2601441 393:0 394:0 395:0 396:0 397:0 398:0 399:0 400:0 401:0 402:0 403:0 404:0 405:0 406:0 407:0 408:0 409:0 410:0 411:0 412:0 413:1.4087659 414:60.633808 415:0 416:9.740159 417:0 418:0 419:0 420:0 421:0 422:0 423:0 424:0 425:0 426:0 427:0 428:0 429:0 430:0 431:0 432:17.279465 433:0 434:0 435:0 436:0 437:0 438:0 439:0 440:0 441:28.156296 442:0 443:0 444:0 445:14.399668 446:0 447:0 448:0 449:0 450:0 451:0 452:0 453:46.66827 454:0 455:0 456:0 457:0 458:0 459:0 460:0 461:0 462:0 463:0 464:0 465:0 466:0 467:0 468:0 469:0 470:0 471:0 472:0 473:0 474:29.030689 475:0 476:0 477:0 478:0 479:0 480:0 481:0 482:0 483:15.52606 484:0 485:0 486:0 487:0 488:0 489:20.719099 490:0 491:0 492:0 493:0 494:0 495:0 496:0 497:0 498:8.6299953 499:0 500:1.7484088 501:0 502:0 503:0 504:23.333742 505:0 506:0 507:0 508:0 509:0 510:0 511:0 
1.75404031531225e-15 0:0 1:0 2:0 3:0 4:0 5:0 6:0 7:97.133385 8:0 9:0 10:0 11:0 12:36.060799 13:0 14:0 15:0 16:0 17:0 18:0 19:0 20:7.236599 21:64.886368 22:0 23:0 24:0 25:0 26:0 27:0 28:0 29:0 30:0 31:0 32:0 33:0 34:68.932396 35:0 36:0 37:0 38:0 39:0 40:7.5885692 41:0 42:12.97443 43:0 44:0 45:0 46:1.6792258 47:0 48:0 49:0 50:17.247183 51:0 52:0 53:0 54:0 55:8.9771175 56:0 57:0 58:8.0264177 59:0 60:0 61:0 62:0 63:0 64:0 65:0 66:0 67:0 68:0 69:0 70:0 71:0 72:0 73:20.878712 74:0 75:25.526083 76:19.422161 77:0 78:0 79:0 80:0 81:0 82:9.3153877 83:0 84:0 85:0 86:0 87:0 88:10.336781 89:0 90:0 91:0 92:0 93:0 94:0 95:36.211609 96:0 97:0 98:0 99:0 100:0 101:0 102:0 103:0 104:0 105:0 106:0 107:0 108:0 109:0 110:0 111:0 112:0 113:0 114:0 115:0 116:0 117:0 118:6.2442126 119:0 120:0 121:0 122:0 123:0 124:22.677011 125:0 126:0 127:0 128:0 129:0 130:0 131:0 132:0 133:0 134:0 135:0 136:0 137:0 138:0 139:0 140:0 141:0 142:0 143:0 144:0 145:0 146:0 147:0 148:0 149:0 150:0 151:0 152:0 153:0 154:0 155:10.632135 156:0 157:0 158:0 159:0 160:0 161:0 162:0 163:0 164:0 165:0 166:0 167:0 168:0 169:0 170:0 171:0 172:39.089481 173:0 174:0 175:0 176:0 177:0 178:0 179:9.0575857 180:0 181:0 182:0 183:0 184:0 185:0 186:104.6568 187:0 188:0 189:0 190:0 191:0 192:0 193:0 194:0 195:0 196:16.660061 197:0 198:0 199:0 200:0 201:0 202:0 203:0 204:0 205:0 206:0 207:0 208:0 209:0 210:0 211:0 212:0 213:0 214:0 215:0 216:0 217:0 218:0 219:0 220:0 221:0 222:0 223:0 224:0 225:0 226:0 227:0 228:0 229:0 230:0 231:0 232:0 233:0 234:0 235:0 236:0 237:0 238:0 239:0 240:0 241:0 242:0 243:0 244:0 245:0 246:0 247:0 248:0 249:0 250:19.609369 251:0 252:0 253:0 254:0 255:0 256:0 257:9.502099 258:0 259:11.533606 260:0 261:0 262:0 263:0 264:0 265:0 266:64.716225 267:0 268:0 269:0 270:0 271:0 272:0 273:0 274:0 275:0 276:0 277:0 278:0 279:0 280:0 281:0 282:0 283:0 284:0 285:0 286:0 287:0 288:0 289:0 290:0 291:0 292:0 293:0 294:0 295:0 296:17.796619 297:0 298:0 299:0 300:8.2036839 301:0 302:0 303:0 304:0 305:0 306:0 307:101.19601 308:0 309:0 310:0 311:0 312:0 313:0 314:0 315:0 316:0 317:0 318:0 319:0 320:0 321:0 322:0 323:0 324:0 325:0 326:0 327:0 328:0 329:0 330:0 331:0 332:0 333:0 334:0 335:0 336:0 337:0 338:0 339:0 340:8.4158325 341:0 342:0 343:0.99572408 344:61.974941 345:18.694546 346:0 347:0 348:0 349:0 350:0 351:0 352:0 353:0 354:0 355:5.3324924 356:2.9096403 357:0 358:0 359:0 360:0 361:0 362:0 363:0 364:0 365:0 366:0 367:0 368:22.677361 369:26.647181 370:0 371:0 372:4.4150267 373:0 374:0 375:0 376:0 377:0 378:0 379:0 380:0 381:0 382:0 383:0 384:0 385:0 386:3.1018608 387:0 388:0 389:0 390:0 391:0 392:11.25666 393:0 394:0 395:0 396:0 397:0 398:0 399:0 400:0 401:0 402:0 403:0 404:0 405:0 406:0 407:0 408:0 409:0 410:0 411:0 412:0 413:0 414:39.71154 415:0 416:24.071356 417:0 418:0 419:0 420:0 421:0 422:0 423:0 424:0 425:0 426:0 427:0 428:0 429:0 430:20.258621 431:0 432:0 433:0 434:0 435:0 436:0 437:0 438:0 439:0 440:0 441:23.522631 442:0 443:0 444:0 445:0 446:0 447:0 448:0 449:0 450:0 451:0 452:0 453:104.81795 454:0 455:0 456:0 457:0 458:1.899277 459:0 460:0 461:0 462:0 463:0 464:0 465:0 466:0 467:0 468:0 469:0 470:0 471:0 472:0 473:0 474:20.468332 475:0 476:0 477:0 478:0 479:0 480:0 481:0 482:0 483:8.3576002 484:0 485:0 486:0 487:0 488:0 489:25.199049 490:0 491:0 492:0 493:0 494:0 495:0 496:0 497:0 498:1.0642151 499:0 500:0 501:0 502:0 503:0 504:0 505:0 506:0 507:0 508:0 509:0 510:0 511:0 
1.143721088679964e-15 0:0 1:0 2:0 3:0 4:0 5:0 6:0 7:58.593674 8:0 9:0 10:0 11:0 12:26.785461 13:0 14:0 15:0 16:0 17:0 18:0 19:0 20:3.3069019 21:38.961956 22:0 23:0 24:0 25:0 26:0 27:0 28:0 29:0 30:0 31:0 32:0 33:0 34:63.835564 35:0 36:0 37:0 38:0 39:0 40:0 41:0 42:5.2384315 43:0 44:0 45:0 46:4.1608639 47:0 48:0 49:0 50:19.123566 51:0 52:0 53:0 54:0 55:3.6174383 56:0 57:0 58:0 59:0 60:0 61:0 62:0 63:0 64:0 65:0 66:0 67:0 68:0 69:0 70:0 71:0 72:0 73:14.925684 74:0 75:0 76:0 77:0 78:0 79:0 80:0 81:0 82:1.2369374 83:0 84:0 85:0 86:0 87:0 88:12.354096 89:0 90:0 91:0 92:0 93:0 94:0 95:12.119034 96:0 97:0 98:0 99:0 100:0 101:0 102:0 103:0 104:0 105:0 106:0 107:0 108:0 109:0 110:0 111:0 112:0 113:0 114:0 115:0 116:0 117:0 118:1.6757218 119:0 120:0 121:0 122:0 123:0 124:41.053928 125:0 126:0 127:0 128:0 129:0 130:0 131:0 132:0 133:0 134:0 135:0 136:0 137:0 138:0 139:0 140:0 141:0 142:0 143:0 144:0 145:0 146:0 147:0 148:0 149:0 150:0 151:0 152:0 153:0 154:0 155:12.499435 156:0 157:0 158:0 159:0 160:0 161:0 162:0 163:0 164:0 165:0 166:0 167:0 168:0 169:0 170:0 171:0 172:31.959526 173:0 174:0 175:0 176:0 177:0 178:0 179:0 180:0 181:0 182:0 183:0 184:0 185:0 186:82.078873 187:0 188:0 189:0 190:0 191:0 192:0 193:0 194:0 195:0 196:0 197:0 198:0 199:0 200:0 201:0 202:0 203:0 204:0 205:0 206:0 207:0 208:0 209:0 210:0 211:0 212:0 213:0 214:15.074245 215:0 216:0 217:0 218:0 219:0 220:0 221:0 222:0 223:0 224:0 225:0 226:0 227:0 228:0 229:0 230:0 231:0 232:0 233:0 234:0 235:0 236:0 237:0 238:0 239:0 240:5.2915149 241:0 242:0 243:0 244:0 245:0 246:0 247:0 248:0 249:0 250:14.651404 251:0 252:0 253:0 254:0 255:0 256:0 257:12.64475 258:0 259:14.442643 260:0 261:0 262:0 263:0 264:0 265:0 266:49.860153 267:0 268:0 269:0 270:0 271:0 272:0 273:0 274:0 275:0 276:0 277:0 278:0 279:0 280:0 281:0 282:0 283:0 284:0 285:0 286:0 287:0 288:0 289:0 290:0 291:0 292:0 293:0 294:0 295:0 296:19.968452 297:0 298:0 299:0 300:11.75771 301:0 302:0 303:0 304:0 305:0 306:0 307:89.12336 308:0 309:0 310:0 311:0 312:1.2069876 313:0 314:0 315:0 316:0 317:0 318:0 319:0 320:0 321:0 322:0 323:0 324:0 325:0 326:0 327:0 328:0 329:0 330:0 331:0 332:0 333:0 334:0 335:0 336:0 337:0 338:0 339:0 340:0 341:0 342:0 343:0 344:57.253654 345:24.063141 346:0 347:0 348:0 349:0 350:0 351:0 352:0 353:0 354:0 355:0 356:0 357:0 358:0 359:0 360:0 361:0 362:0 363:0 364:0 365:0 366:0 367:0 368:23.301218 369:37.140953 370:0 371:0 372:0 373:0 374:0 375:0 376:0 377:0 378:0 379:0 380:0 381:0 382:0 383:0 384:0 385:0 386:0 387:0 388:0 389:0 390:0 391:0 392:4.2983489 393:0 394:0 395:0 396:0 397:0 398:0 399:0 400:0 401:0 402:0 403:0 404:0 405:0 406:0 407:0 408:0 409:0 410:0 411:0 412:0 413:0 414:22.66135 415:0 416:19.999517 417:0 418:0 419:0 420:0 421:0 422:0 423:0 424:0 425:0 426:0 427:0 428:0 429:0 430:37.689697 431:0 432:0 433:0 434:0 435:0 436:0 437:0 438:0 439:0 440:0 441:22.669006 442:0 443:0 444:0 445:0 446:0 447:0 448:0 449:0 450:0 451:0 452:0 453:128.73956 454:0 455:0 456:0 457:0 458:0 459:0 460:0 461:0 462:0 463:0 464:0 465:0 466:0 467:0 468:0 469:2.6926527 470:0 471:0 472:0 473:0 474:12.82776 475:0 476:0 477:0 478:0 479:0 480:0 481:0 482:0 483:4.8072205 484:0 485:0 486:0 487:0 488:0 489:10.103723 490:0 491:0 492:0 493:0 494:0 495:0 496:0 497:0 498:0 499:0 500:0 501:0 502:0 503:0 504:15.028327 505:0 506:0 507:0 508:0 509:0 510:0 511:0 
4.143232768198839e-16 0:0 1:0 2:0 3:0 4:0 5:16.746044 6:0 7:0 8:0 9:0 10:0 11:26.718811 12:20.076458 13:0 14:0 15:0 16:0 17:0 18:0 19:0 20:0 21:29.798363 22:0 23:0 24:0 25:0 26:0 27:0 28:0 29:0 30:0 31:0 32:0 33:0 34:35.737854 35:0 36:0 37:0 38:0 39:0 40:46.565132 41:41.461018 42:1.2450242 43:47.260967 44:0 45:0 46:7.3941488 47:0 48:0 49:0 50:7.2289157 51:0 52:0 53:39.364529 54:0 55:22.968403 56:0 57:0 58:24.275291 59:0 60:0 61:4.1454792 62:0 63:0 64:0 65:0 66:14.437642 67:27.065697 68:0 69:0 70:0 71:0 72:15.360711 73:22.617464 74:0 75:38.012367 76:65.057228 77:0 78:0 79:0 80:0 81:24.25285 82:0 83:15.200394 84:0 85:0 86:0 87:0 88:7.9150038 89:0 90:0 91:0 92:0 93:0 94:0 95:0 96:0 97:0 98:0 99:0 100:0 101:12.719466 102:0 103:0 104:0 105:0 106:22.098484 107:0 108:0 109:0 110:0 111:0 112:0 113:0 114:0 115:0 116:0 117:18.036165 118:21.276823 119:0 120:0 121:0 122:0 123:32.19886 124:0 125:0 126:0 127:2.1864319 128:0 129:0 130:0 131:0 132:0 133:0 134:0 135:0 136:0 137:0 138:0 139:0 140:0 141:0 142:0 143:0 144:0 145:0 146:0 147:0 148:0 149:0 150:0 151:0 152:0 153:0 154:0 155:2.1310091 156:0 157:0 158:0 159:0 160:0 161:0 162:0 163:13.490358 164:0 165:0 166:0 167:0 168:5.4071136 169:19.194794 170:11.502967 171:0 172:2.321419 173:0 174:0 175:0 176:31.634945 177:0 178:0 179:30.947714 180:0 181:0.17042673 182:0 183:0 184:16.780092 185:0 186:17.572742 187:0 188:0 189:0 190:0 191:4.2698793 192:0 193:0 194:0 195:0 196:0 197:0 198:0 199:0 200:0 201:0 202:33.349556 203:0 204:0 205:0 206:0 207:0 208:53.89463 209:0 210:0 211:0 212:0 213:0 214:0 215:0 216:14.82966 217:0 218:0 219:0 220:0 221:0 222:0 223:4.9441252 224:0 225:11.25595 226:0 227:0 228:0 229:0 230:0 231:0 232:0 233:0 234:0 235:0 236:0 237:0 238:0 239:0 240:0 241:0 242:0 243:0 244:0 245:0 246:0 247:0 248:0 249:0 250:0 251:0 252:0 253:5.2667227 254:0 255:0 256:0 257:0.023146987 258:0 259:0 260:0 261:47.233032 262:0 263:0 264:0 265:0 266:37.134476 267:0 268:0 269:6.6356659 270:0 271:0 272:0 273:0 274:0 275:0 276:0 277:11.856352 278:0 279:0 280:0 281:0 282:0 283:0 284:0 285:0 286:0 287:0 288:0 289:0 290:0 291:0 292:0 293:0 294:18.70639 295:0 296:0 297:0 298:0 299:0 300:0 301:0 302:0 303:0 304:0 305:0 306:0 307:8.6421146 308:6.6603732 309:0 310:0 311:0 312:0 313:0 314:0 315:0 316:16.945444 317:40.038464 318:0 319:0 320:9.227643 321:0 322:0 323:0 324:0 325:0 326:0 327:0 328:0 329:0 330:0 331:0 332:11.545927 333:0 334:0 335:0 336:0 337:0 338:15.892319 339:0 340:0 341:0 342:0 343:6.7452679 344:30.116655 345:0 346:0 347:0 348:0 349:0 350:0 351:0 352:0 353:0 354:0 355:0 356:0 357:0 358:0 359:9.4825029 360:16.181549 361:0 362:0 363:12.126131 364:0 365:0 366:0 367:0 368:0 369:23.438484 370:0 371:0 372:52.866562 373:0 374:54.087757 375:0 376:0 377:0 378:0 379:8.7570152 380:0 381:0 382:0 383:0 384:0 385:35.477154 386:0 387:0 388:14.938021 389:0 390:0 391:0 392:15.717288 393:0 394:0 395:0 396:0 397:0 398:0 399:0 400:0 401:0 402:0 403:0 404:1.8153398 405:0 406:0 407:0 408:4.7948456 409:0 410:0 411:0 412:0 413:0 414:34.010933 415:0 416:27.929789 417:0 418:76.375763 419:0 420:0 421:0 422:0.56201637 423:0 424:0 425:0 426:0 427:0 428:0 429:0 430:5.5699573 431:0 432:0 433:0 434:0 435:0 436:0 437:0 438:0 439:0 440:0 441:1.7066655 442:0 443:0 444:33.637493 445:0 446:0 447:3.7404265 448:0 449:0 450:0 451:0 452:2.3090074 453:0 454:0 455:0 456:0 457:0 458:19.332127 459:0 460:0 461:0 462:0 463:0 464:0 465:0 466:0 467:0 468:0 469:0 470:0 471:0 472:0 473:0 474:10.088958 475:0 476:0 477:0 478:0 479:0 480:0 481:0 482:0 483:7.0524912 484:0 485:0 486:0 487:0 488:0 489:6.5303359 490:0 491:0 492:0 493:0 494:0 495:0 496:13.216562 497:33.798477 498:33.542198 499:0 500:62.760796 501:0 502:0 503:0 504:0 505:0 506:0 507:0 508:0 509:0 510:0 511:6.4251161 
1.972481348444856e-15 0:0 1:0 2:0 3:0 4:0 5:0 6:0 7:66.178909 8:0 9:0 10:0 11:0 12:16.600742 13:0 14:0 15:0 16:0 17:0 18:0 19:0 20:6.3566647 21:40.450558 22:0 23:0 24:0 25:0 26:0 27:0 28:0 29:0 30:0 31:0 32:0 33:0 34:56.920181 35:0 36:0 37:0 38:0 39:0 40:0 41:0 42:5.6177449 43:0 44:0 45:0 46:9.7280836 47:0 48:0 49:0 50:19.596533 51:0 52:0 53:0 54:0 55:12.230716 56:0 57:0 58:0 59:0 60:0 61:0 62:0 63:0 64:0 65:0 66:2.1200945 67:0 68:0 69:0 70:0 71:0 72:0 73:23.020279 74:0 75:0 76:0 77:0 78:0 79:0 80:0 81:0 82:0 83:0 84:0 85:0 86:0 87:0 88:14.713566 89:0 90:0 91:0 92:0 93:0 94:0 95:16.647373 96:0 97:0 98:0 99:0 100:0 101:0 102:0 103:0 104:0 105:0 106:0 107:0 108:0 109:0 110:0 111:0 112:0 113:0 114:0 115:0 116:0 117:0 118:0.68963182 119:0 120:0 121:0 122:0 123:0 124:37.230747 125:0 126:0 127:0 128:0 129:0 130:0 131:0 132:0 133:0 134:0 135:0 136:0 137:0 138:0 139:0 140:0 141:0 142:0 143:0 144:0 145:0 146:0 147:0 148:0 149:0 150:0 151:0 152:0 153:0 154:0 155:13.808041 156:0 157:0 158:0 159:0 160:0 161:0 162:0 163:0 164:0 165:0 166:0 167:0 168:0 169:0 170:0 171:0 172:28.420425 173:0 174:0 175:0 176:0 177:0 178:0 179:3.9869716 180:0 181:0 182:0 183:0 184:0 185:0 186:76.45356 187:0 188:0 189:0 190:0 191:0 192:0 193:0 194:0 195:0 196:0 197:0 198:0 199:0 200:0 201:0 202:0 203:0 204:0 205:0 206:0 207:0 208:0 209:0 210:0 211:0 212:0 213:0 214:22.549398 215:0 216:0 217:0 218:0 219:0 220:0 221:0 222:0 223:0 224:0 225:0 226:0 227:0 228:0 229:0 230:0 231:0 232:0 233:0 234:0 235:0 236:0 237:0 238:0 239:0 240:11.629628 241:0 242:0 243:0 244:0 245:0 246:0 247:0 248:1.109978 249:0 250:11.91636 251:0 252:0 253:0 254:0 255:0 256:0 257:19.536161 258:0 259:21.457373 260:0 261:0 262:0 263:0 264:0 265:0 266:45.990887 267:0 268:0 269:0 270:0 271:0 272:0 273:0 274:0 275:0 276:0 277:0 278:0 279:0 280:0 281:1.62028 282:0 283:0 284:0 285:0 286:0 287:0 288:0 289:0 290:0 291:0 292:0 293:0 294:0 295:0 296:22.153847 297:0 298:0 299:0 300:16.684233 301:0 302:0 303:0 304:0 305:0 306:0 307:63.487011 308:0 309:3.3110683 310:0 311:0 312:0 313:0 314:0 315:0 316:0 317:0 318:0 319:0 320:0 321:0 322:0 323:0 324:0 325:0 326:0 327:0 328:0 329:0 330:0 331:0 332:0 333:0 334:0 335:0 336:0 337:0 338:0 339:0 340:0 341:0 342:0 343:0 344:62.239841 345:44.018364 346:0 347:1.1270725 348:0 349:0 350:0 351:0 352:0 353:0 354:0 355:0 356:0 357:0 358:0 359:0 360:0 361:0 362:0 363:0 364:0 365:0 366:0 367:0 368:30.89328 369:30.342871 370:0 371:0 372:0 373:0 374:0 375:0 376:0 377:0 378:0 379:0 380:0 381:0 382:0 383:0 384:0 385:0 386:3.3561497 387:0 388:0 389:0 390:0 391:0 392:10.383417 393:0 394:0 395:0 396:0 397:0 398:0 399:0 400:0 401:0 402:0 403:0 404:0 405:0 406:0 407:0 408:0 409:0 410:0 411:0 412:0 413:0 414:27.610746 415:0 416:24.44873 417:0 418:0 419:0 420:0 421:0 422:0 423:0 424:0 425:0 426:0 427:0 428:0 429:0 430:46.32803 431:0 432:0 433:0 434:0 435:0 436:0 437:0 438:0 439:0 440:0 441:21.668985 442:0 443:0 444:0 445:0 446:0 447:0 448:0 449:0 450:0 451:0 452:0 453:129.26337 454:0 455:0 456:0 457:0 458:3.4069417 459:0 460:0 461:0 462:0 463:0 464:0 465:0 466:0 467:0 468:0 469:7.2943392 470:0 471:0 472:0 473:0 474:13.546487 475:0 476:0 477:0 478:0 479:0 480:0 481:0 482:0 483:4.0357356 484:0 485:0 486:0.30315936 487:0 488:0 489:13.521036 490:0 491:0 492:0 493:0 494:0 495:0 496:0 497:0 498:0 499:0 500:0 501:0 502:0 503:0 504:22.532085 505:0 506:0 507:0 508:0 509:0 510:0 511:0 
2.692189616582825e-15 0:0 1:0 2:0 3:0 4:0 5:0 6:0 7:16.129139 8:0 9:0 10:10.046814 11:0 12:37.104721 13:0 14:0 15:0 16:0 17:0 18:0 19:0 20:0 21:25.376089 22:0 23:0 24:0 25:0 26:0 27:0 28:0 29:0 30:0 31:0 32:0 33:0 34:47.285301 35:0 36:0 37:0 38:0 39:0 40:20.837994 41:23.147635 42:4.8111115 43:0 44:0 45:0 46:0 47:0 48:0 49:0 50:26.138432 51:0 52:0 53:0.028393537 54:0 55:0 56:0 57:0 58:21.014896 59:0 60:0 61:0 62:0 63:0 64:0 65:0 66:0 67:0 68:0 69:0 70:0 71:0 72:0 73:35.244026 74:0 75:31.166395 76:34.473141 77:0 78:0 79:0 80:0 81:0 82:0 83:0 84:0 85:0 86:0 87:0 88:47.106625 89:0 90:0 91:0 92:0 93:0 94:0 95:9.8574562 96:0 97:0 98:0 99:0 100:0 101:2.1797385 102:0 103:0 104:0 105:0 106:0 107:0 108:0 109:0 110:13.362725 111:0 112:0 113:0 114:0 115:0 116:0 117:0 118:21.717854 119:0 120:0 121:0 122:0 123:12.667649 124:23.028229 125:0 126:0 127:1.9541075 128:0 129:0 130:0 131:0 132:0 133:0 134:0 135:0 136:0 137:0 138:0 139:0 140:0 141:0 142:0 143:0 144:0 145:0 146:0 147:0 148:0 149:0 150:0 151:0 152:0 153:0 154:0 155:18.413071 156:0 157:0 158:0 159:0 160:0 161:0 162:0 163:0 164:0 165:0 166:0 167:0 168:0 169:0 170:0 171:0 172:47.017059 173:0 174:1.9445732 175:5.2869887 176:12.986478 177:0 178:0 179:12.747352 180:0 181:0 182:0 183:0 184:0 185:0 186:72.146965 187:0 188:0 189:0 190:0 191:0 192:0 193:0 194:0 195:0 196:8.7734766 197:0 198:0 199:0 200:0 201:0 202:0 203:0 204:0 205:0 206:0 207:0 208:0 209:0 210:0 211:0 212:0 213:0 214:0.7200098 215:0 216:6.0155339 217:0 218:0 219:0 220:0 221:0 222:0 223:0 224:0 225:17.653751 226:0 227:0 228:0 229:0 230:0 231:0 232:0 233:0 234:0 235:0 236:0 237:0 238:0 239:0 240:1.2920487 241:0 242:0 243:0 244:0 245:0 246:0 247:0 248:0 249:0 250:32.674812 251:0 252:0 253:0 254:0 255:0 256:0 257:0.92997956 258:0 259:0 260:0 261:6.9256239 262:0 263:0 264:0 265:0 266:48.116875 267:0 268:0 269:0 270:0 271:0 272:0 273:0 274:0 275:0 276:0 277:0 278:0 279:0 280:0 281:0 282:0 283:0.33318853 284:0 285:0 286:0 287:0 288:0 289:0 290:0 291:0 292:0 293:0 294:0 295:0 296:19.745592 297:0 298:0 299:0 300:22.730776 301:0 302:0 303:0 304:0 305:0 306:0 307:28.440725 308:0 309:0 310:0 311:0 312:2.3592818 313:0 314:0 315:0 316:7.8941107 317:0 318:0 319:0 320:0 321:0 322:0 323:0 324:0 325:0 326:0 327:0 328:0 329:0 330:0 331:0 332:0 333:0 334:0 335:0 336:0 337:0 338:0 339:0 340:7.0462875 341:0 342:0 343:1.5214412 344:58.949989 345:0 346:0 347:0 348:0 349:0 350:0 351:3.5673883 352:0 353:0 354:0 355:0 356:4.2706485 357:0 358:0 359:0 360:10.834512 361:0 362:0 363:0 364:0 365:0 366:0 367:0 368:11.758752 369:24.55151 370:0 371:0 372:56.848492 373:0 374:22.681465 375:0 376:0 377:0 378:0 379:0 380:0 381:0 382:0 383:0 384:0 385:0 386:0 387:3.3052862 388:12.680628 389:0 390:0 391:0 392:1.7059525 393:0 394:0 395:0 396:0 397:0 398:0 399:0 400:0 401:0 402:0 403:0 404:0 405:0 406:0 407:0 408:0 409:0 410:0 411:0 412:0 413:0 414:66.814949 415:0 416:14.766853 417:0 418:59.980415 419:0 420:0 421:0 422:0 423:0 424:0 425:0.65459907 426:0 427:0 428:0 429:0 430:0 431:0 432:2.1002579 433:0 434:0 435:0 436:0 437:0 438:0 439:0 440:0 441:25.662811 442:0 443:0 444:0 445:6.5006552 446:0 447:0 448:0 449:0 450:0 451:0 452:0 453:24.705679 454:0 455:0 456:0 457:0 458:21.212988 459:0 460:0 461:0 462:0 463:0 464:0 465:0 466:0 467:0 468:0 469:0 470:0 471:0 472:0 473:0 474:18.165693 475:0 476:0 477:0 478:0 479:0 480:0 481:0 482:0 483:18.343662 484:0 485:0 486:0 487:0 488:0 489:19.150822 490:0 491:0 492:0 493:0 494:0 495:0 496:1.6108303 497:1.4670306 498:23.016729 499:0 500:0 501:0 502:0 503:0 504:15.761745 505:0 506:0 507:0 508:0 509:0 510:0 511:0 
1.275131477027374e-15 0:0 1:0 2:0 3:0 4:0 5:0 6:0 7:21.056765 8:0 9:0 10:0 11:0 12:34.263668 13:0 14:0 15:0 16:0 17:0 18:0 19:0 20:0 21:38.02084 22:0 23:0 24:0 25:0 26:0 27:0 28:5.0778747 29:0 30:0 31:0 32:0 33:0 34:46.458809 35:0 36:0 37:0 38:0 39:0 40:18.316305 41:21.991594 42:4.569057 43:0 44:0 45:0 46:0 47:0 48:0 49:0 50:26.839184 51:0 52:0 53:0 54:0 55:0 56:0 57:0 58:20.704126 59:0 60:0 61:0 62:0 63:0 64:0 65:0 66:0 67:0 68:0 69:0 70:0 71:0 72:0 73:28.82271 74:0 75:42.395557 76:38.348782 77:0 78:0 79:0 80:0 81:0 82:0 83:0 84:0 85:0 86:0 87:0 88:47.290894 89:0 90:0 91:0 92:0 93:0 94:0 95:9.007494 96:0 97:0 98:0 99:0 100:0 101:0 102:0 103:0 104:0 105:0 106:0 107:0 108:0 109:0 110:11.764641 111:0 112:0 113:0 114:0 115:0 116:0 117:0 118:34.551197 119:0 120:0 121:0 122:0 123:7.5895247 124:19.214722 125:0 126:0 127:0.094369218 128:0 129:0 130:0 131:0 132:0 133:0 134:0 135:0 136:0 137:0 138:0 139:0 140:0 141:0 142:0 143:0 144:0 145:0 146:0 147:0 148:0 149:0 150:0 151:0 152:0 153:1.115674 154:0 155:16.423395 156:0 157:0 158:0 159:0.65374363 160:0 161:0 162:0 163:0 164:0 165:0 166:0 167:0 168:0 169:0 170:0 171:0 172:50.508999 173:0 174:0 175:7.6503706 176:6.3189344 177:0 178:0 179:12.983929 180:0 181:0 182:0 183:0 184:0 185:0 186:79.017883 187:0 188:0 189:0 190:0 191:0 192:0 193:0 194:0 195:0 196:0.74777454 197:0 198:0 199:0 200:0 201:0 202:0 203:0 204:0 205:0 206:0 207:0 208:0 209:0 210:0 211:0 212:0 213:0 214:0 215:0 216:0 217:0 218:0 219:0 220:0 221:0 222:0 223:0 224:0 225:10.896526 226:0 227:0 228:0 229:0 230:0 231:0 232:0 233:0 234:0 235:0 236:0 237:0 238:0 239:0 240:0 241:0 242:0 243:0 244:0 245:0 246:0 247:0 248:0 249:0 250:34.040081 251:0 252:0 253:0 254:0 255:0 256:0 257:5.7519279 258:0 259:0 260:0 261:7.4461761 262:0 263:0 264:0 265:0 266:45.741222 267:0 268:0 269:0 270:0 271:0 272:0 273:0 274:0 275:0 276:0 277:0 278:0 279:0 280:0 281:0 282:0 283:0 284:0 285:0 286:0 287:0 288:0 289:0 290:0 291:0 292:0 293:0 294:0 295:0 296:17.293224 297:0 298:0 299:0 300:23.005661 301:0 302:0 303:0 304:0 305:0 306:0 307:30.51305 308:0 309:0 310:0 311:0 312:0.93463027 313:0 314:0 315:0 316:0 317:0 318:0 319:0 320:0 321:0 322:0 323:0 324:0 325:0 326:0 327:0 328:0 329:0 330:0 331:0 332:16.426832 333:0 334:0 335:0 336:0 337:0 338:0 339:0 340:17.246756 341:0 342:0 343:0 344:61.869389 345:0 346:0 347:0 348:0 349:0 350:0 351:0 352:0 353:0 354:0 355:0.38588181 356:0 357:0 358:0 359:0 360:1.3064793 361:0 362:0 363:2.9679236 364:0 365:0 366:0 367:0 368:15.473701 369:14.615916 370:0 371:0 372:70.051865 373:0 374:17.021107 375:0 376:0 377:0 378:0 379:0 380:0 381:0 382:0 383:0 384:0 385:0 386:0 387:4.9692292 388:12.845545 389:0 390:0 391:0 392:2.4034305 393:0 394:0 395:0 396:0 397:0 398:0 399:0 400:0 401:0 402:0 403:0 404:0 405:0 406:0 407:0 408:0 409:0 410:0 411:0 412:0 413:0 414:60.787128 415:0 416:18.112841 417:0 418:41.034153 419:0 420:0 421:0 422:0 423:0 424:0 425:0 426:0 427:0 428:0 429:0 430:0 431:0 432:2.1915884 433:0 434:0 435:0 436:0 437:0 438:0 439:0 440:0 441:31.41044 442:0 443:0 444:0 445:5.5592313 446:0 447:0 448:0 449:0 450:0 451:0 452:0 453:29.122545 454:0 455:0 456:0 457:0 458:18.534086 459:0 460:0 461:0 462:0 463:0 464:0 465:7.9881277 466:0 467:0 468:0 469:0 470:0 471:0 472:0 473:0 474:12.971142 475:0 476:0 477:0 478:0 479:0 480:0 481:0 482:0 483:17.004498 484:0 485:0 486:0 487:0 488:0 489:32.971642 490:0 491:0 492:0 493:0 494:0 495:0 496:11.870235 497:1.2895981 498:22.080963 499:0 500:0 501:0 502:0 503:0 504:23.162085 505:0 506:0 507:0 508:0 509:0 510:0 511:0 
5.03202796123727e-15 0:0 1:0 2:0 3:0 4:0 5:0 6:0 7:31.381296 8:0 9:0 10:0 11:0 12:27.362631 13:0 14:0 15:0 16:0 17:0 18:0 19:0 20:0 21:47.388805 22:0 23:0 24:0 25:0 26:0 27:0 28:0 29:0 30:0 31:0 32:0 33:0 34:30.332573 35:0 36:0 37:0 38:0 39:0 40:6.9804549 41:27.836393 42:18.966444 43:0.43645528 44:0 45:0 46:0 47:0 48:0 49:0 50:39.48455 51:0 52:0 53:0 54:0 55:0 56:0 57:0 58:22.43185 59:0 60:0 61:0 62:0 63:0 64:0 65:0 66:0 67:0 68:0 69:0 70:0 71:0 72:0 73:25.404793 74:0 75:34.858391 76:28.576658 77:0 78:0 79:0 80:0 81:0 82:0 83:0 84:0 85:0 86:0 87:0 88:41.813179 89:0 90:0 91:0 92:0 93:0 94:0 95:18.310663 96:0 97:0 98:0 99:0 100:0 101:0 102:0 103:0 104:0 105:0 106:0 107:0 108:0 109:0 110:10.1065 111:0 112:0 113:0 114:0 115:0 116:0 117:0 118:26.69771 119:0 120:0 121:0 122:0 123:0 124:33.761162 125:0 126:0 127:0 128:0 129:0 130:0 131:0 132:0 133:0 134:0 135:0 136:0 137:0 138:0 139:0 140:0 141:0 142:0 143:0 144:0 145:0 146:0 147:0 148:0 149:0 150:0 151:0 152:0 153:15.385727 154:0 155:16.849977 156:0 157:0 158:0 159:1.7401222 160:0 161:0 162:0 163:0 164:0 165:0 166:0 167:0 168:0 169:0 170:0 171:0 172:40.197289 173:0 174:0 175:0 176:12.985949 177:0 178:0 179:5.82375 180:0 181:0 182:0 183:0 184:0 185:0 186:82.980568 187:0 188:0 189:0 190:0 191:0 192:0 193:0 194:0 195:0 196:0 197:0 198:0 199:0 200:0 201:0 202:0 203:0 204:0 205:0 206:0 207:0 208:0 209:0 210:0 211:0 212:0 213:0 214:0 215:0 216:0 217:0 218:0 219:0 220:0 221:0 222:0 223:0 224:0 225:0 226:0 227:0 228:0 229:0 230:0 231:0 232:0 233:0 234:0 235:0 236:0 237:0 238:0 239:0 240:3.0691609 241:0 242:0 243:0 244:0 245:0 246:0 247:0 248:0 249:0 250:25.965603 251:0 252:0 253:0 254:0 255:0 256:0 257:0 258:0 259:0 260:0 261:0 262:0 263:0 264:0 265:0 266:39.989189 267:0 268:0 269:0 270:0 271:0 272:0 273:0 274:0 275:0 276:0 277:0 278:0 279:0 280:0 281:0 282:0 283:0 284:0 285:0 286:0 287:0 288:0 289:0 290:0 291:0 292:0 293:0 294:0 295:0 296:12.177777 297:0 298:0 299:0 300:23.967239 301:0 302:0 303:0 304:0 305:0 306:0 307:36.631508 308:0 309:0 310:0 311:0 312:2.776438 313:0 314:0 315:0 316:0 317:0 318:0 319:0 320:0 321:0 322:0 323:0 324:0 325:0 326:0 327:0 328:0 329:0 330:0 331:0 332:0 333:0 334:0 335:0 336:0 337:0 338:0 339:0 340:0 341:0 342:0 343:3.8134904 344:55.600735 345:0 346:0 347:0 348:0 349:0 350:0 351:0 352:0 353:0 354:0 355:0 356:0 357:0 358:0 359:0 360:1.5201956 361:0 362:0 363:0 364:0 365:0 366:0 367:0 368:36.833134 369:11.055472 370:0 371:0 372:34.581612 373:0 374:0 375:0 376:0 377:0 378:0 379:0 380:0 381:0 382:0 383:0 384:0 385:0 386:0 387:0 388:15.981258 389:0 390:0 391:0 392:0 393:0 394:0 395:0 396:0 397:0 398:0 399:0 400:0 401:0 402:0 403:0 404:0 405:0 406:0 407:0 408:0 409:0 410:0 411:0 412:0 413:0 414:43.08942 415:0 416:29.299383 417:0 418:0.68422514 419:0 420:0 421:0 422:0 423:0 424:0 425:0 426:0 427:0 428:0 429:0 430:0 431:0 432:0 433:0 434:0 435:0 436:0 437:0 438:0 439:0 440:0 441:21.804832 442:0 443:0 444:0 445:0 446:0 447:0 448:0 449:0 450:0 451:0 452:0 453:25.129728 454:0 455:0 456:0 457:0 458:5.7331333 459:0 460:0 461:0 462:0 463:0 464:0 465:0 466:0 467:0 468:0 469:0 470:0 471:0 472:0 473:0 474:15.962632 475:0 476:0 477:0 478:0 479:0 480:0 481:0 482:0 483:13.769827 484:0 485:0 486:0 487:0 488:0 489:35.272789 490:0 491:0 492:0 493:0 494:0 495:0 496:19.362434 497:5.3332877 498:31.379086 499:0 500:0 501:0 502:0 503:0 504:21.434647 505:0 506:0 507:0 508:0 509:0 510:0 511:0 
1.80060398029506e-15 0:0 1:0 2:0 3:0 4:0 5:1.5559441 6:0 7:0 8:0 9:0 10:0 11:0 12:9.701766 13:0 14:0 15:13.011031 16:0 17:1.2637569 18:0 19:0 20:0.46405476 21:0 22:0 23:0 24:13.703243 25:0 26:0 27:0 28:0 29:0 30:11.925149 31:0 32:0 33:0 34:23.687201 35:0 36:0 37:0 38:0 39:0 40:11.495727 41:29.659224 42:6.7978764 43:2.0071707 44:0 45:0 46:0 47:0 48:0 49:0 50:0 51:0 52:0 53:20.596312 54:0 55:15.315755 56:0 57:0 58:26.235653 59:0 60:0 61:0 62:0 63:0 64:0 65:0 66:0 67:0 68:0 69:0 70:0 71:0 72:37.926651 73:4.6363859 74:0 75:0.90788549 76:47.66341 77:0 78:0 79:0 80:0 81:25.80765 82:0 83:6.2955546 84:0 85:0 86:0 87:0 88:22.73386 89:0 90:0 91:0 92:0 93:0 94:0 95:0 96:0 97:0 98:0 99:19.917707 100:0 101:16.211382 102:0 103:0 104:0 105:0 106:0 107:0 108:0 109:0 110:0 111:0 112:0 113:23.197435 114:0 115:0 116:14.793758 117:0.094346881 118:9.8425941 119:0 120:8.6246948 121:0 122:0 123:45.539188 124:26.625042 125:0 126:0 127:0 128:0 129:0 130:0 131:0 132:0 133:0 134:0 135:0 136:0 137:6.7885189 138:3.9974737 139:0 140:0 141:0 142:0 143:30.850849 144:0 145:0 146:0 147:10.962333 148:25.214308 149:0 150:0 151:0 152:0 153:3.1779892 154:0 155:12.279373 156:0 157:0.65661001 158:0 159:0 160:0 161:0 162:0 163:31.968048 164:0 165:0 166:27.689995 167:0 168:0 169:0 170:0 171:0 172:8.0797558 173:20.6852 174:0 175:0 176:0 177:0 178:0 179:1.114841 180:0 181:9.7618618 182:0 183:0 184:9.3950052 185:12.952108 186:24.706274 187:0 188:0 189:0 190:0 191:42.097729 192:0 193:0 194:0 195:0 196:12.044274 197:0 198:0 199:0 200:0 201:0 202:7.690134 203:0 204:0 205:0 206:0 207:0 208:28.028551 209:0 210:0 211:0 212:0 213:0 214:0 215:0 216:2.9655826 217:0 218:0 219:0 220:0 221:0 222:0 223:0 224:0 225:17.204941 226:0 227:0 228:0 229:0 230:0 231:0 232:0 233:0 234:0 235:0 236:4.4872985 237:2.7606673 238:0 239:0 240:0 241:0 242:0 243:0 244:0 245:9.4715099 246:0 247:0.08619751 248:0 249:0 250:0 251:0 252:0 253:0 254:0 255:0 256:0 257:0 258:0 259:13.505787 260:0 261:5.4318366 262:0 263:0 264:0 265:0 266:8.8701944 267:0 268:0 269:38.188583 270:0 271:0 272:0 273:0 274:0 275:0 276:10.846601 277:0 278:0 279:0 280:0 281:1.8366096 282:0 283:0 284:0 285:0 286:0 287:0 288:0 289:0 290:0 291:0 292:0 293:0 294:10.937854 295:0 296:1.6292471 297:0 298:0 299:0 300:0 301:0 302:0 303:31.721357 304:0 305:0 306:0 307:21.774559 308:0 309:0 310:41.205841 311:0 312:0 313:0 314:0 315:0 316:0 317:32.36359 318:0 319:0 320:1.7801105 321:0 322:0 323:0 324:0 325:0 326:0 327:0 328:0 329:6.8048301 330:0 331:0 332:0 333:0 334:0 335:0 336:0 337:0 338:39.025349 339:0 340:0 341:0 342:0 343:2.1137214 344:13.545789 345:0 346:0 347:0 348:0 349:0 350:0 351:0 352:0 353:0 354:0 355:0 356:0 357:0 358:0 359:0 360:20.552448 361:0 362:0 363:5.9754944 364:0 365:0 366:0 367:2.4674575 368:0 369:13.657784 370:0 371:0 372:25.96929 373:0 374:5.3917289 375:0 376:0 377:0 378:0 379:0 380:0 381:0 382:0 383:0 384:0 385:0.92415077 386:0 387:0 388:3.6757474 389:0 390:21.59889 391:0 392:0 393:0 394:0 395:0 396:0 397:0 398:0 399:0 400:0 401:0 402:0 403:0 404:0 405:0 406:0 407:0 408:0 409:0 410:1.2603817 411:0 412:0 413:0 414:27.119026 415:0 416:40.951107 417:0 418:30.743952 419:0 420:0 421:0 422:0 423:0 424:0 425:0 426:0 427:0 428:0 429:0 430:2.3276715 431:0 432:0 433:0 434:0 435:0 436:0 437:0 438:0 439:0 440:0 441:2.3682833 442:0 443:0 444:5.9191103 445:0 446:0 447:0 448:0 449:0 450:0 451:0 452:0 453:0 454:0 455:0 456:0 457:0 458:0 459:19.870716 460:0 461:0 462:0 463:0 464:0 465:2.0575345 466:0 467:0 468:0 469:0 470:0 471:0 472:0 473:0 474:0 475:7.5516448 476:0 477:0 478:0 479:0 480:0 481:0 482:0 483:4.4155598 484:0 485:0 486:0 487:0 488:0 489:0 490:0 491:0 492:0 493:0 494:0 495:0 496:0 497:0 498:14.341089 499:0 500:56.269421 501:0 502:0 503:0 504:0 505:0 506:0.43452543 507:0 508:0 509:0 510:0 511:0 
1.526202310270725e-15 0:0 1:0 2:13.151093 3:0 4:0 5:0 6:0 7:8.4883728 8:0 9:0 10:0 11:0 12:43.708073 13:0 14:0 15:0 16:0 17:0 18:0 19:1.1286454 20:0 21:10.66826 22:0 23:0 24:0 25:0 26:0 27:0 28:0 29:0 30:0 31:0 32:0 33:0 34:41.29464 35:0 36:0 37:0 38:0 39:0 40:0 41:0 42:13.733613 43:26.656572 44:0 45:0 46:0 47:0 48:0 49:0 50:25.440805 51:0 52:0 53:0 54:0 55:7.3344474 56:0 57:0 58:9.0722513 59:0 60:0 61:0 62:0 63:0 64:0 65:0 66:0 67:0 68:0 69:0 70:0 71:0 72:0 73:27.150085 74:0 75:0 76:14.735229 77:0 78:0 79:0 80:0 81:0 82:0 83:0 84:0 85:0 86:0 87:0 88:2.2446744 89:0 90:0 91:0 92:0 93:0 94:0 95:30.313801 96:0 97:0 98:23.512178 99:0 100:0 101:0 102:0 103:3.1847734 104:0 105:0 106:0 107:0 108:0 109:0 110:3.6750393 111:0 112:0 113:0 114:0 115:0 116:0 117:0 118:4.1603494 119:0 120:0 121:0 122:0 123:5.10537 124:56.737957 125:0 126:0 127:0 128:0 129:0 130:0 131:0 132:0 133:0 134:0 135:0 136:0 137:0 138:0 139:0 140:0 141:0 142:0 143:0 144:0 145:0 146:0 147:0 148:0 149:0 150:0 151:0 152:0 153:0 154:0 155:10.347731 156:0 157:0 158:0 159:0 160:0 161:0 162:0 163:0 164:0 165:0 166:0 167:0 168:0 169:0 170:19.75947 171:0 172:32.090015 173:0 174:0 175:0 176:0 177:0 178:0 179:2.292176 180:11.677183 181:0 182:0 183:0 184:0 185:0 186:43.693729 187:0 188:0 189:0 190:0 191:0 192:0 193:0 194:0 195:0 196:0 197:0 198:0 199:0 200:0 201:0 202:0 203:0 204:0 205:0 206:0 207:0 208:0 209:0 210:0 211:0 212:0 213:0 214:0 215:0 216:22.902523 217:0 218:0 219:0 220:0 221:0 222:0 223:0 224:0 225:0 226:0 227:0 228:0 229:0 230:0 231:0 232:0 233:0 234:0 235:0 236:0 237:0 238:0 239:0 240:28.821793 241:0 242:0 243:0 244:0 245:0 246:0 247:0 248:17.660543 249:0 250:0 251:0 252:0 253:0 254:0 255:0 256:0 257:0 258:0 259:0 260:0 261:0 262:0 263:0 264:0 265:0 266:18.006884 267:0 268:0 269:0 270:0 271:0 272:0 273:0 274:0 275:0 276:0 277:0 278:0 279:0 280:0 281:0 282:0 283:0 284:0 285:0 286:0 287:0 288:0 289:0 290:0 291:0 292:0 293:0 294:0 295:0 296:29.318319 297:0 298:0 299:0 300:0 301:0 302:0 303:0 304:0 305:0 306:0 307:77.667412 308:0 309:10.392658 310:0 311:0 312:15.99384 313:0 314:0 315:0 316:0 317:2.3542397 318:0 319:0 320:0 321:1.1429242 322:0 323:0 324:0 325:0 326:0 327:0 328:0 329:0 330:0 331:0 332:0 333:0 334:0 335:0 336:0 337:0 338:0 339:0 340:0 341:0 342:0 343:0 344:69.076698 345:36.572197 346:0 347:11.190026 348:0 349:0 350:0 351:0 352:0 353:0 354:0 355:0 356:12.644984 357:0 358:0 359:0 360:17.317894 361:0 362:0 363:0 364:0 365:0 366:0 367:0 368:0 369:29.267475 370:0 371:0 372:0 373:0 374:0 375:0 376:0 377:0 378:0 379:0 380:0 381:0 382:0 383:0 384:0 385:0 386:0 387:0 388:71.926514 389:0 390:0 391:0 392:0 393:0 394:0 395:0 396:0 397:0 398:0 399:0 400:0 401:0 402:13.188642 403:0 404:0 405:0 406:0 407:0 408:0 409:0 410:0 411:0 412:0 413:0 414:46.981323 415:0 416:22.001364 417:0 418:0 419:0 420:0 421:0 422:0 423:0 424:0 425:0 426:0 427:0 428:0 429:0 430:30.641502 431:0 432:0 433:0 434:0 435:0 436:0 437:0 438:0 439:0 440:0 441:24.160835 442:0 443:0 444:0 445:0 446:0 447:0 448:0 449:0 450:8.8630362 451:0 452:0 453:83.248245 454:0 455:0 456:0 457:0 458:2.44031 459:0 460:0 461:0 462:0 463:0 464:0 465:0 466:0 467:0 468:0 469:5.1621628 470:0 471:0 472:0 473:0 474:17.018757 475:0 476:0 477:0 478:0 479:0 480:0 481:0 482:0 483:0 484:0 485:0 486:0 487:0 488:0 489:30.09186 490:0 491:0 492:0 493:0 494:0 495:0 496:0 497:0 498:0 499:0 500:0 501:0 502:0 503:0 504:0 505:0 506:0 507:0 508:0 509:0 510:0 511:0 
1.332683656706805e-15 0:0 1:0 2:0 3:0 4:0 5:0 6:0 7:5.0162539 8:0 9:0 10:0 11:0 12:46.699162 13:0 14:0 15:0 16:0 17:17.302021 18:0 19:0 20:0 21:9.6180868 22:0 23:0 24:0.71097159 25:0 26:0 27:0 28:0 29:0 30:0 31:0 32:0 33:0 34:62.435623 35:0 36:0 37:0 38:0 39:0 40:25.067059 41:22.806158 42:0 43:0 44:0 45:0 46:0 47:0 48:0 49:0 50:22.756355 51:0 52:0 53:0 54:0 55:0 56:0 57:0 58:17.877283 59:0 60:0 61:0 62:0 63:0 64:0 65:0 66:0 67:0 68:0 69:0 70:0 71:0 72:0 73:8.0085783 74:0 75:13.489332 76:49.355396 77:0 78:0 79:0 80:0 81:1.3634952 82:0 83:0 84:0 85:17.767504 86:0 87:0 88:40.632008 89:0 90:0 91:0 92:0 93:0 94:0 95:0 96:0 97:0 98:0 99:23.628683 100:0 101:17.711008 102:0 103:0 104:0 105:0 106:0 107:0 108:0 109:0 110:0 111:0 112:0 113:0 114:0 115:0 116:0 117:3.3946848 118:17.30044 119:0 120:0 121:0 122:0 123:62.491459 124:24.690889 125:0 126:0 127:0 128:0 129:0 130:0 131:0 132:0 133:0 134:0 135:0 136:0 137:0 138:0 139:0 140:0 141:0 142:0 143:20.897762 144:0 145:0 146:0 147:0 148:18.197966 149:0 150:0 151:0 152:0 153:0 154:0 155:13.159084 156:0 157:0 158:0 159:0 160:0 161:0 162:0 163:24.80287 164:0 165:0 166:0 167:0 168:0 169:0 170:0 171:0 172:35.879784 173:0 174:0 175:0 176:3.5502281 177:0 178:0 179:0.86344552 180:0 181:0 182:0 183:0 184:32.705959 185:0 186:51.64703 187:0 188:0 189:0 190:0 191:0 192:0 193:0 194:0 195:0 196:0 197:0 198:0 199:0 200:0 201:0 202:0 203:0 204:0 205:0 206:0 207:0 208:0 209:0 210:0 211:0 212:0 213:0 214:0 215:0 216:0 217:0 218:0 219:0 220:0 221:0 222:0 223:0 224:0 225:0 226:0 227:0 228:0 229:12.180752 230:0 231:0 232:0 233:0 234:0 235:0 236:0 237:1.804973 238:0 239:0 240:0 241:0 242:0 243:0 244:0 245:0 246:0 247:0 248:0 249:0 250:13.14301 251:0 252:0 253:0 254:0 255:0 256:0 257:0 258:0 259:0 260:0 261:7.1713538 262:0 263:0 264:0 265:0 266:52.02866 267:0 268:0 269:17.621441 270:0 271:0 272:0 273:0 274:0 275:0 276:0 277:0 278:0 279:0 280:0 281:0 282:0 283:0 284:0 285:0 286:0 287:0 288:0 289:0 290:0 291:0 292:0 293:0 294:4.6664166 295:0 296:6.5433784 297:0 298:0 299:0 300:12.1275 301:0 302:0 303:0 304:0 305:0 306:0 307:8.8764219 308:0 309:0 310:0 311:0 312:0 313:0 314:0 315:0 316:0 317:0 318:0 319:3.0894198 320:0 321:0 322:0 323:0 324:0 325:0 326:0 327:0 328:0 329:0 330:0 331:0 332:0 333:0 334:0 335:0 336:0 337:0 338:33.666973 339:0 340:0 341:0 342:0 343:0 344:23.433697 345:0 346:0 347:0 348:0 349:0 350:0 351:0 352:0 353:0 354:0 355:0 356:0.91419697 357:0 358:0 359:0 360:26.369453 361:0 362:0 363:8.2444658 364:0 365:0 366:0 367:0 368:0 369:4.4757166 370:0 371:0 372:41.001781 373:0 374:0 375:0 376:0 377:0 378:0 379:0.57700157 380:0 381:1.5523895 382:0 383:0 384:0 385:0 386:0 387:0 388:0 389:0 390:31.304295 391:0 392:0 393:0 394:0 395:0 396:0 397:0 398:0 399:0 400:0 401:0 402:0 403:0 404:0 405:0 406:0 407:0 408:0 409:0 410:0 411:0 412:0 413:0 414:31.468399 415:0 416:39.339638 417:0 418:30.684488 419:0 420:0 421:0 422:0 423:0 424:0 425:0 426:0 427:0 428:0 429:0 430:0 431:0 432:0 433:0 434:0 435:0 436:0 437:0 438:0 439:0 440:0 441:26.825499 442:0 443:0 444:0 445:0 446:0 447:0 448:0 449:0 450:0 451:0 452:0 453:0.69820756 454:0 455:0 456:2.315573 457:0 458:0 459:0 460:0 461:0 462:0 463:0 464:0 465:0 466:0 467:0 468:0 469:0 470:0 471:0 472:0 473:0 474:0 475:0 476:0 477:0 478:0 479:0 480:0 481:0 482:0 483:24.701763 484:0 485:0 486:0 487:0 488:0 489:7.8256631 490:0 491:0 492:0 493:0 494:0 495:0 496:0 497:0 498:0 499:0 500:27.68487 501:0 502:0 503:0 504:0 505:0 506:0 507:0 508:0 509:0 510:0 511:0 
2.729343859432578e-15 0:0 1:0 2:0 3:0 4:0 5:0 6:0 7:8.4636545 8:0 9:0 10:0 11:0 12:32.620953 13:0 14:0 15:0 16:0 17:13.838788 18:0 19:0 20:0 21:50.799274 22:0 23:0 24:0 25:0 26:0 27:0 28:0 29:0 30:0 31:0 32:0 33:0 34:45.732376 35:0 36:0 37:0 38:0 39:0 40:11.38479 41:0 42:12.230746 43:0 44:0 45:0 46:0 47:0 48:0 49:0 50:32.821365 51:0 52:0 53:1.187253 54:0 55:3.9265416 56:0 57:0 58:21.424665 59:0 60:0 61:0 62:0 63:0 64:0 65:0 66:0 67:0 68:0 69:0 70:0 71:0 72:0 73:19.596979 74:0 75:0.18267775 76:54.586777 77:0 78:0 79:0 80:0 81:0 82:0 83:0 84:0 85:0 86:0 87:0 88:27.154062 89:0 90:0 91:0 92:0 93:0 94:0 95:4.7920842 96:0 97:0 98:0 99:24.740883 100:0 101:3.2740593 102:0 103:0 104:0 105:0 106:0 107:0 108:0 109:0 110:0 111:0 112:0 113:0 114:0 115:0 116:0 117:10.206021 118:25.508101 119:0 120:0 121:0 122:0 123:25.947308 124:17.686317 125:0 126:0 127:0 128:0 129:0 130:0 131:0 132:0 133:0 134:0 135:0 136:0 137:0 138:0 139:0 140:0 141:0 142:0 143:13.205437 144:0 145:0 146:0 147:0 148:0.43102825 149:0 150:0 151:0 152:0 153:0 154:0 155:13.773251 156:0 157:7.744833 158:0 159:0 160:0 161:0 162:0 163:13.049931 164:0 165:0 166:0 167:0 168:0 169:0 170:0 171:0 172:23.610346 173:0 174:0 175:0 176:0 177:0 178:0 179:7.7985029 180:0 181:0 182:0 183:0 184:17.550209 185:0 186:52.2202 187:0 188:0 189:0 190:0 191:11.331944 192:0 193:0 194:0 195:0 196:1.7310688 197:0 198:0 199:0 200:0 201:0 202:0 203:0 204:0 205:0 206:0 207:0 208:0 209:0 210:0 211:0 212:0 213:0 214:0 215:0 216:0 217:0 218:0 219:0 220:0 221:0 222:0 223:0 224:0 225:5.5618677 226:0 227:0 228:0 229:0 230:0 231:0 232:0 233:0 234:0 235:0 236:0 237:2.9947689 238:0 239:0 240:0 241:0 242:0 243:0 244:0 245:0 246:0 247:0 248:0 249:0 250:24.096762 251:0 252:0 253:0 254:0 255:0 256:0 257:0 258:0 259:0 260:0 261:0 262:0 263:0 264:0 265:0 266:43.983139 267:0 268:0 269:28.122267 270:0 271:0 272:0 273:0 274:0 275:0 276:0 277:0 278:0 279:0 280:0 281:0 282:0 283:0 284:0 285:0 286:0 287:0 288:0 289:0 290:0 291:0 292:0 293:0 294:14.238679 295:0 296:4.1680722 297:0 298:0 299:0 300:5.5139823 301:0 302:0 303:0 304:0 305:0 306:0 307:0 308:0 309:0 310:0 311:0 312:0 313:0 314:0 315:0 316:0 317:0 318:0 319:5.9910951 320:0 321:0 322:0 323:0 324:0 325:0 326:0 327:0 328:0 329:0 330:0 331:0 332:0 333:0 334:0 335:0 336:0 337:0 338:36.137783 339:0 340:0 341:0 342:0 343:0 344:21.897339 345:0 346:0 347:0 348:0 349:0 350:0 351:0 352:0 353:0 354:0 355:0 356:0 357:0 358:0 359:7.0670657 360:26.530453 361:0 362:0 363:0.2917721 364:0 365:0 366:0 367:0 368:9.3714771 369:0 370:0 371:0 372:26.514719 373:0 374:0 375:0 376:0 377:0 378:0 379:0 380:0 381:0 382:0 383:0 384:0 385:0 386:0 387:9.8775587 388:0 389:0 390:20.807396 391:0 392:9.3545008 393:0 394:0 395:0 396:0 397:0 398:0 399:0 400:0 401:0 402:0 403:0 404:0 405:0 406:0 407:0 408:0 409:0 410:0 411:0 412:0 413:0 414:32.934151 415:0 416:54.902302 417:0 418:36.983566 419:0 420:0 421:0 422:0 423:0 424:0 425:0 426:0 427:0 428:0 429:0 430:0 431:0 432:0 433:0 434:0 435:0 436:0 437:0 438:0 439:0 440:0 441:20.611895 442:0 443:0 444:0 445:0 446:0 447:0 448:0 449:0 450:0 451:0 452:0 453:0 454:0 455:0 456:1.9189913 457:0 458:0 459:0 460:0 461:0 462:0 463:0 464:0 465:0 466:0 467:0 468:0 469:0 470:0 471:0 472:0 473:0 474:0 475:0 476:0 477:0 478:0 479:0 480:0 481:0 482:0 483:20.416182 484:0 485:0 486:0 487:0 488:0 489:37.769539 490:0 491:0 492:0 493:0 494:0 495:0 496:0 497:0.70032263 498:0 499:0 500:26.079716 501:0 502:0 503:0 504:0 505:0 506:0 507:0 508:0 509:0 510:0 511:0 
1.163111500889246e-15 0:0 1:0 2:25.643391 3:0 4:0 5:0 6:0 7:58.422112 8:0 9:0 10:0 11:11.514853 12:36.190155 13:0 14:0 15:0 16:0 17:0 18:0 19:6.5159965 20:0 21:43.028175 22:0 23:0 24:0 25:0 26:0 27:0 28:0 29:0 30:0 31:0 32:0 33:0 34:59.542931 35:0 36:0 37:0 38:0 39:0 40:38.76326 41:0 42:0 43:0 44:0 45:0 46:0 47:0 48:0 49:0 50:0.56028324 51:0 52:0 53:0 54:0 55:12.428862 56:0 57:0 58:16.531334 59:0 60:0 61:0 62:0 63:0 64:0 65:0 66:0 67:0 68:0 69:0 70:0 71:0 72:0 73:37.764156 74:0 75:25.84638 76:100.19447 77:0 78:0 79:0 80:0 81:0 82:0 83:0 84:0 85:0 86:0 87:0 88:19.832335 89:0 90:0 91:0 92:0 93:0 94:0 95:21.378778 96:0 97:0 98:0 99:8.3147182 100:0 101:2.4064615 102:0 103:0 104:0 105:0 106:0 107:0 108:0 109:0 110:29.332972 111:0 112:0 113:0 114:0 115:0 116:0 117:11.50281 118:27.828918 119:0 120:0 121:0 122:0 123:27.429871 124:49.149437 125:0 126:0 127:9.2745924 128:0 129:0 130:0 131:0 132:0 133:0 134:0 135:0 136:0 137:0 138:0 139:0 140:0 141:0 142:0 143:0 144:0 145:0 146:0 147:0 148:0 149:0 150:0 151:0 152:0 153:4.1604519 154:0 155:5.9536905 156:0 157:0 158:0 159:0 160:0 161:0 162:0 163:0 164:0 165:0 166:0 167:0 168:0 169:0 170:0 171:0 172:70.897797 173:0 174:0 175:0 176:0 177:0 178:0 179:2.9377272 180:0 181:0 182:0 183:0 184:0 185:0 186:77.172691 187:0 188:0 189:0 190:0 191:15.196383 192:0 193:0 194:0 195:0 196:0 197:0 198:0 199:0 200:0 201:0 202:0 203:0 204:0 205:4.1444216 206:0 207:0 208:0 209:0 210:0 211:0 212:0 213:0 214:0 215:0 216:11.821815 217:0 218:0 219:0 220:0 221:0 222:0 223:0 224:0 225:0 226:0 227:0 228:0 229:0 230:0 231:0 232:0 233:0 234:0 235:0 236:0 237:0 238:0 239:0 240:0 241:0 242:0 243:0 244:0 245:0 246:0 247:0 248:0 249:0 250:2.6374848 251:0 252:0 253:0 254:11.061705 255:0 256:0 257:0 258:0 259:0 260:0 261:0 262:0 263:0 264:0 265:0 266:21.056248 267:0 268:0 269:1.1915808 270:0 271:0 272:0 273:0 274:0 275:0 276:0 277:0 278:0 279:0 280:0 281:0 282:0 283:0 284:0 285:0 286:0 287:0 288:0 289:0 290:0 291:0 292:0 293:0 294:2.7047586 295:0 296:3.282609 297:0 298:0 299:0 300:0 301:0 302:0 303:0 304:0 305:0 306:0 307:1.2965749 308:0 309:0 310:0 311:0 312:2.9993834 313:0 314:0 315:0 316:0 317:0 318:0 319:0 320:0 321:0 322:0 323:0 324:0 325:0 326:0 327:0 328:0 329:0 330:0 331:0 332:0 333:0 334:0 335:0 336:0 337:0 338:7.0720901 339:0 340:0 341:0 342:0 343:6.7507439 344:61.558357 345:0 346:0 347:0 348:0 349:0 350:0 351:0 352:0 353:0 354:0 355:0 356:0 357:0 358:0 359:31.344893 360:0 361:0 362:0 363:0 364:0 365:0 366:0 367:0 368:0.96513069 369:0 370:0 371:0 372:39.760601 373:0 374:0 375:0 376:0 377:0 378:0 379:0 380:0 381:0 382:0 383:0 384:0 385:0 386:8.3184347 387:0 388:0 389:0 390:0 391:0 392:20.801779 393:0 394:0 395:0 396:0 397:0 398:0 399:0 400:0 401:0 402:0 403:0 404:0 405:0 406:0 407:0 408:0 409:0 410:0 411:0 412:0 413:0 414:68.103752 415:0 416:12.138061 417:0 418:0 419:0 420:0 421:0 422:0 423:0 424:0 425:0 426:0 427:0 428:0 429:0 430:0 431:0 432:11.952044 433:0 434:0 435:0 436:0 437:0 438:0 439:0 440:0 441:25.858732 442:0 443:0 444:0 445:0 446:0 447:0 448:0 449:0 450:0 451:0 452:0 453:0 454:0 455:0 456:0 457:0 458:21.93593 459:0 460:0 461:0 462:0 463:0 464:0 465:6.8486457 466:0 467:0 468:0 469:0 470:0 471:0 472:0 473:0 474:0 475:0 476:0 477:0 478:0 479:0 480:0 481:0 482:0 483:15.593296 484:0 485:0 486:0 487:0 488:0 489:38.281616 490:0 491:0 492:0 493:0 494:0 495:0 496:0 497:3.9571257 498:14.878408 499:0 500:17.304647 501:0 502:0 503:0 504:2.2226741 505:0 506:0 507:0 508:0 509:0 510:0 511:0 
2.263591232151581e-15 0:0 1:0 2:10.710388 3:0 4:0 5:0 6:0 7:55.840424 8:0 9:0 10:0 11:11.002511 12:29.158216 13:0 14:0 15:0 16:0 17:0 18:0 19:0.45384052 20:0 21:52.748108 22:0 23:0 24:0 25:0 26:0 27:0 28:0 29:0 30:0 31:0 32:0 33:0 34:70.558403 35:0 36:0 37:0 38:0 39:0 40:38.225327 41:0 42:0 43:0 44:0 45:0 46:0 47:0 48:0 49:0 50:0 51:0 52:0 53:0 54:0 55:12.559119 56:0 57:0 58:9.7681293 59:0 60:0 61:0 62:0 63:0 64:0 65:0 66:0 67:0 68:0 69:0 70:0 71:0 72:0 73:29.609657 74:0 75:46.656162 76:93.944115 77:0 78:0 79:0 80:0 81:0 82:0 83:0 84:0 85:0 86:0 87:0 88:15.915423 89:0 90:0 91:0 92:0 93:0 94:0 95:41.765663 96:0 97:0 98:0 99:0 100:0 101:0.28414255 102:0 103:0 104:0 105:0 106:0 107:0 108:0 109:0 110:20.053282 111:0 112:0 113:0 114:0 115:0 116:0 117:6.5510721 118:34.849449 119:0 120:0 121:0 122:0 123:16.453171 124:43.445286 125:0 126:0 127:8.5488892 128:0 129:0 130:0 131:0 132:0 133:0 134:0 135:0 136:0 137:0 138:0 139:0 140:0 141:0 142:0 143:0 144:0 145:0 146:0 147:0 148:0 149:0 150:0 151:0 152:0 153:6.2922368 154:0 155:6.1681776 156:0 157:0 158:0 159:0 160:0 161:0 162:0 163:0 164:0 165:0 166:0 167:0 168:0 169:0 170:0 171:0 172:58.683563 173:0 174:0 175:0 176:0 177:0 178:0 179:9.3854342 180:0 181:0 182:0 183:0 184:0 185:0 186:75.163277 187:0 188:0 189:0 190:0 191:18.135244 192:0 193:0 194:0 195:0 196:0 197:0 198:0 199:0 200:0 201:0 202:0 203:0 204:0 205:0 206:0 207:0 208:0 209:0 210:0 211:0 212:0 213:0 214:0 215:0 216:0 217:0 218:0 219:0 220:0 221:0 222:0 223:0 224:0 225:0 226:0 227:0 228:0 229:0 230:0 231:0 232:0 233:0 234:0 235:0 236:0 237:0 238:0 239:0 240:0 241:0 242:0 243:0 244:0 245:0 246:0 247:0 248:0 249:0 250:1.8512138 251:0 252:0 253:0 254:3.0349212 255:0 256:0 257:0 258:0 259:0 260:0 261:0 262:0 263:0 264:0 265:0 266:23.623644 267:0 268:0 269:0 270:0 271:0 272:0 273:0 274:0 275:0 276:0 277:0 278:0 279:0 280:0 281:0 282:0 283:0 284:0 285:0 286:0 287:0 288:0 289:0 290:0 291:0 292:0 293:0 294:3.2016745 295:0 296:4.8314729 297:0.090876862 298:0 299:0 300:0 301:0 302:0 303:0 304:0 305:0 306:0 307:7.4658375 308:0 309:0 310:0 311:0 312:0 313:0 314:0 315:0 316:0 317:0 318:0 319:0 320:0 321:0 322:0 323:0 324:0 325:0 326:0 327:0 328:0 329:0 330:0 331:0 332:0 333:0 334:0 335:0 336:0 337:0 338:10.512608 339:0 340:0 341:0 342:0 343:5.037302 344:55.373333 345:0 346:0 347:0 348:0 349:0 350:0 351:0 352:0 353:0 354:0 355:0 356:0 357:0 358:0 359:27.672224 360:0 361:0 362:0 363:0 364:0 365:0 366:0 367:0 368:0 369:0 370:0 371:0 372:40.51432 373:0 374:0 375:0 376:0 377:0 378:0 379:0 380:0 381:0 382:0 383:0 384:0 385:0 386:9.8446827 387:0 388:0 389:0 390:0 391:0 392:21.371571 393:0 394:0 395:0 396:0 397:0 398:0 399:0 400:0 401:0 402:0 403:0 404:0 405:0 406:0 407:0 408:0 409:0 410:0 411:0 412:0 413:0 414:64.128677 415:0 416:30.649454 417:0 418:0 419:0 420:0 421:0 422:0 423:0 424:0 425:0 426:0 427:0 428:0 429:0 430:0 431:0 432:0.23682594 433:0 434:0 435:0 436:0 437:0 438:0 439:0 440:0 441:24.187786 442:0 443:0 444:0 445:0 446:0 447:38.584042 448:0 449:0 450:0 451:0 452:0 453:0 454:0 455:0 456:0 457:0 458:10.86232 459:0 460:0 461:0 462:0 463:0 464:0 465:13.688947 466:0 467:0 468:0 469:0 470:0 471:0 472:0 473:0 474:0.67511624 475:0 476:0 477:0 478:0 479:0 480:0 481:0 482:0 483:12.403102 484:0 485:0 486:0 487:0 488:0 489:33.829361 490:0 491:0 492:0 493:0 494:0 495:0 496:0 497:11.047657 498:50.64629 499:0 500:29.424475 501:0 502:0 503:0 504:7.1704216 505:0 506:0 507:0 508:0 509:0 510:0 511:0 
1.678246758712451e-15 0:0 1:0 2:17.245798 3:0 4:0 5:0 6:0 7:0 8:0 9:0 10:0 11:0 12:22.866772 13:0 14:0 15:0 16:0 17:0 18:0 19:0 20:0 21:0 22:0 23:0 24:0 25:0 26:0 27:0 28:0 29:0 30:0 31:0 32:0 33:0 34:58.525047 35:0 36:0 37:0 38:0 39:0 40:0 41:0 42:0 43:0 44:0 45:0 46:0 47:0 48:0 49:0 50:0 51:0 52:0 53:0 54:0 55:0 56:0 57:0 58:13.886025 59:0 60:0 61:0 62:0 63:0 64:0 65:0 66:0 67:0 68:0 69:0 70:14.925556 71:0 72:15.778971 73:1.8733237 74:0 75:0 76:106.95824 77:0 78:0 79:0 80:0 81:0 82:0 83:0 84:0 85:9.1121349 86:0 87:0 88:0 89:0 90:0 91:0 92:0 93:0 94:0 95:0 96:0 97:0 98:0 99:0 100:0 101:0.71009725 102:0 103:0 104:0 105:0 106:0 107:0 108:0 109:0 110:34.134052 111:0 112:0 113:0 114:0 115:0 116:2.3048644 117:19.015491 118:0 119:0 120:0 121:0 122:0 123:0.26008016 124:0 125:0 126:0 127:19.669687 128:0 129:0 130:0 131:0 132:3.790277 133:0 134:0 135:0 136:0 137:0 138:0 139:0 140:0 141:0 142:14.75865 143:80.17511 144:0 145:0 146:0 147:0 148:0 149:0 150:0 151:0 152:0 153:0 154:0 155:9.268652 156:0 157:0 158:0 159:0 160:0 161:0 162:0 163:4.4567642 164:0 165:0 166:0 167:0 168:4.2719007 169:0 170:0 171:0 172:13.48652 173:0 174:0 175:0 176:0 177:0 178:0 179:25.733927 180:0 181:0 182:0 183:0 184:0 185:1.3341947 186:0 187:0 188:0 189:0 190:0 191:3.5609477 192:0 193:0 194:0 195:0 196:0 197:0 198:0 199:0 200:0 201:0 202:0 203:0 204:0 205:14.806137 206:0 207:0 208:0 209:0 210:0 211:0 212:0 213:0 214:0 215:0 216:36.657295 217:0 218:0 219:0 220:0 221:0 222:0 223:0 224:0 225:19.108835 226:0 227:0 228:0 229:33.560238 230:0 231:9.8944979 232:10.35074 233:0 234:0 235:0 236:0 237:23.109652 238:0 239:0 240:0 241:0 242:0 243:0 244:0 245:0 246:0 247:0 248:0 249:0 250:0 251:0 252:0 253:0 254:0 255:0 256:0 257:0 258:0 259:0 260:0 261:54.284447 262:0 263:0 264:0 265:0 266:0 267:0 268:0 269:0 270:0 271:0 272:0 273:0 274:0 275:0 276:0 277:0 278:0 279:0 280:0 281:0 282:0 283:0 284:0 285:0 286:0 287:0 288:0 289:0 290:0 291:0 292:0 293:0 294:60.92421 295:0 296:0 297:0 298:19.904772 299:0 300:0 301:0 302:0 303:0 304:0 305:0 306:0 307:0 308:0 309:0 310:0 311:0 312:0 313:0 314:0 315:7.7976522 316:0 317:0 318:0 319:0 320:0 321:0 322:0 323:0 324:0 325:0 326:0 327:0 328:0 329:0 330:0 331:0 332:0 333:0 334:0 335:0 336:0 337:0 338:33.663349 339:0 340:0 341:0 342:0 343:0 344:14.033865 345:0 346:0 347:0 348:0 349:0 350:0 351:0 352:0 353:0 354:0 355:0 356:0 357:0 358:0 359:0 360:0 361:0 362:0 363:0 364:0 365:25.25025 366:0 367:0 368:0 369:26.068228 370:0 371:0 372:0 373:0 374:47.516945 375:0 376:0 377:0 378:0 379:0 380:0 381:0 382:0 383:0 384:0 385:0 386:3.8034091 387:0 388:0 389:0 390:0 391:11.000052 392:0 393:0 394:0 395:0 396:0 397:0 398:0 399:0 400:0 401:0 402:0 403:0 404:0 405:0 406:0 407:0 408:0.80665767 409:0 410:0 411:0 412:0 413:0 414:45.82399 415:0 416:20.474272 417:0 418:0 419:0 420:0 421:0 422:0 423:0 424:0 425:0 426:0 427:0 428:0 429:0 430:0 431:0 432:5.9872031 433:0 434:0 435:0 436:0 437:0 438:0 439:0 440:0 441:19.487335 442:0 443:0 444:0 445:0 446:0 447:0 448:0 449:0 450:0 451:0 452:0 453:0 454:0 455:0 456:0 457:0 458:0 459:0 460:0 461:0 462:0 463:0 464:0 465:0 466:0 467:0 468:0 469:0 470:0 471:0 472:0 473:0 474:0 475:0 476:0 477:0 478:0 479:0 480:0 481:0 482:0 483:0 484:0 485:0 486:8.4738932 487:0 488:0 489:0 490:0 491:0 492:0 493:0 494:0 495:0 496:0 497:0 498:24.194151 499:0 500:52.074677 501:0 502:0 503:0 504:0 505:0 506:0 507:0 508:0 509:0 510:0 511:0 
1.198414893207136e-15 0:0 1:0 2:5.7468624 3:0 4:0 5:0 6:0 7:0 8:0 9:0 10:0 11:0 12:2.1481764 13:0 14:0 15:0 16:0 17:0 18:0 19:0 20:15.672884 21:0 22:0 23:0 24:0 25:0 26:0 27:0 28:0 29:0 30:0 31:0 32:0 33:0 34:53.337639 35:0 36:0 37:0 38:0 39:0 40:0 41:0 42:0 43:0 44:0 45:0 46:0 47:0 48:0 49:0 50:0 51:0 52:0 53:0 54:0 55:0 56:0 57:0 58:0 59:0 60:0 61:0 62:0 63:0 64:0 65:0 66:0 67:0 68:0 69:0 70:0 71:7.5643048 72:4.2705755 73:41.464962 74:0 75:0.49881107 76:65.820618 77:0 78:0 79:0 80:0 81:0 82:0 83:0 84:0 85:1.9663178 86:0 87:0 88:0 89:0 90:0 91:0 92:0 93:0 94:0 95:0 96:0 97:0 98:0 99:0 100:0 101:0 102:0 103:0 104:0 105:0 106:0 107:0 108:0 109:0 110:29.205599 111:0 112:0 113:3.3241472 114:0 115:0 116:0 117:0 118:0 119:0 120:0 121:0 122:0 123:0 124:2.1947422 125:0 126:0 127:19.828613 128:0 129:0 130:0 131:0 132:0 133:0 134:0 135:0 136:0 137:0 138:0 139:0 140:20.616581 141:0 142:0 143:0 144:0 145:0 146:0 147:0 148:0 149:0 150:0 151:0 152:0 153:8.039259 154:0 155:7.4131355 156:0 157:0 158:0 159:0 160:0 161:0 162:0 163:18.803162 164:0 165:0 166:0 167:0 168:4.9879408 169:0 170:0 171:0 172:32.302673 173:0 174:0 175:0 176:0 177:0 178:0 179:16.559057 180:0 181:0 182:0 183:0 184:0 185:0 186:0 187:0 188:0 189:0 190:0 191:0 192:0 193:0 194:0 195:0 196:23.668076 197:0 198:0 199:0 200:0 201:0 202:0 203:0 204:0 205:16.359653 206:0 207:0 208:0 209:0 210:0 211:0 212:0 213:0 214:0 215:0 216:45.362625 217:0 218:0 219:0 220:0 221:0 222:0 223:0 224:0 225:13.23735 226:0 227:0 228:0 229:10.369521 230:0 231:0 232:0 233:0 234:0 235:0 236:0 237:0 238:0 239:0 240:0 241:0 242:12.318033 243:0 244:0 245:0 246:0 247:0 248:0 249:0 250:0 251:0 252:0 253:0 254:0 255:0 256:0 257:0 258:0 259:0 260:0 261:10.425443 262:0 263:0 264:0 265:0 266:0 267:0 268:0 269:0 270:0 271:0 272:0 273:0 274:0 275:0 276:0 277:0 278:0 279:0 280:0 281:0 282:0 283:0 284:0 285:0 286:0 287:0 288:0 289:0 290:0 291:0 292:9.1536703 293:0 294:8.854847 295:0 296:0 297:0 298:0 299:0 300:0 301:0 302:0 303:0 304:0 305:0 306:0 307:0 308:0 309:0 310:0 311:0 312:0 313:0 314:0 315:0 316:0 317:23.125843 318:0 319:0 320:18.089586 321:0 322:0 323:0 324:0 325:0 326:0 327:0 328:0 329:0 330:0 331:0 332:0 333:0 334:0 335:0 336:0 337:0 338:38.820194 339:0 340:0 341:0 342:0 343:11.558429 344:32.946487 345:6.701479 346:0 347:0 348:0 349:0 350:0 351:0 352:0 353:0 354:0 355:0 356:0 357:0 358:0 359:0 360:0 361:0 362:0 363:0 364:0 365:8.5250854 366:0 367:0 368:0 369:14.147243 370:0 371:0 372:0 373:0 374:51.217216 375:0 376:0 377:0 378:0 379:0 380:0 381:0 382:0 383:0 384:0 385:0 386:23.000681 387:0 388:0 389:0 390:0 391:3.6923823 392:0 393:0 394:0 395:0 396:0 397:0 398:0 399:0 400:0 401:0 402:0 403:0 404:0 405:0 406:0 407:0 408:0 409:0 410:0 411:0 412:0 413:0 414:91.485504 415:0 416:8.106883 417:0 418:0 419:0 420:0 421:0 422:0 423:0 424:0 425:0 426:0 427:0 428:0 429:0 430:0 431:0 432:3.8389266 433:0 434:0 435:0 436:0 437:0 438:0 439:0 440:9.599658 441:19.400101 442:0 443:0 444:0 445:0 446:0 447:0 448:0 449:0 450:0 451:0 452:0 453:0 454:0 455:7.7740221 456:0 457:0 458:0 459:0 460:0 461:0 462:0 463:0 464:0 465:0 466:0 467:0 468:0 469:0 470:0 471:0 472:27.864462 473:0 474:0 475:0 476:0 477:0 478:0 479:0 480:0 481:0 482:0 483:0 484:0 485:0 486:0 487:0 488:0 489:0 490:0 491:0 492:0 493:0 494:0 495:0 496:0 497:0 498:40.344135 499:0 500:2.4672668 501:0 502:0 503:0 504:0 505:0 506:0 507:0 508:0 509:0 510:0 511:0 
2.529131739663599e-15 0:0 1:0 2:0 3:0 4:0 5:0 6:0 7:0 8:0 9:0 10:0 11:0.38623726 12:33.933758 13:0 14:0 15:0 16:0 17:0 18:0 19:0 20:22.992239 21:30.586082 22:0 23:0 24:0 25:0 26:0 27:0 28:0 29:0 30:0 31:0 32:0 33:0 34:84.152252 35:0 36:0 37:0 38:0 39:0 40:6.2352428 41:0 42:0 43:0 44:0 45:0 46:0 47:0 48:0 49:0 50:3.2873602 51:0 52:0 53:0 54:0 55:1.6281214 56:0 57:0 58:18.767387 59:0 60:0 61:0 62:0 63:0 64:0 65:0 66:0 67:0 68:0 69:0 70:0 71:0.26107597 72:0 73:42.824985 74:0 75:14.756115 76:93.243454 77:0 78:0 79:0 80:0 81:0 82:1.316156 83:0 84:0 85:14.865872 86:0 87:0 88:4.1123114 89:0 90:0 91:0 92:0 93:0 94:0 95:3.7319446 96:0 97:0 98:0 99:0 100:0 101:27.574318 102:0 103:0 104:0 105:0 106:0 107:0 108:0 109:0 110:13.154937 111:0 112:0 113:9.1917839 114:0 115:0 116:0 117:16.381485 118:0 119:0 120:0 121:0 122:0 123:0 124:47.773132 125:0 126:0 127:1.3902298 128:0 129:0 130:0 131:0 132:0 133:0 134:0 135:0 136:0 137:0 138:0 139:0 140:0 141:0 142:0 143:0 144:0 145:0 146:0 147:0 148:0 149:0 150:0 151:0 152:0 153:3.0173371 154:0 155:2.1102281 156:0 157:0 158:0 159:0 160:0 161:0 162:0 163:18.180817 164:0 165:0 166:0 167:0 168:0 169:0 170:0 171:0 172:47.027126 173:0 174:0 175:0 176:0 177:0 178:0 179:0 180:0 181:0 182:0 183:0 184:0.50737953 185:0 186:44.243587 187:0 188:0 189:0 190:0 191:11.45851 192:0 193:0 194:0 195:0 196:22.394152 197:0 198:0 199:0 200:0 201:0 202:0 203:0 204:0 205:0 206:0 207:0 208:0 209:0 210:0 211:0 212:0 213:0 214:0 215:0 216:14.727628 217:0 218:0 219:0 220:0 221:0 222:0 223:0 224:0 225:25.656616 226:0 227:0 228:0 229:0 230:0 231:17.175499 232:0 233:0 234:0 235:0 236:0 237:0 238:0 239:0 240:0 241:0 242:0 243:0 244:0 245:0 246:0 247:0 248:0 249:0 250:4.9041452 251:0 252:0 253:0 254:0 255:0 256:0 257:0 258:0 259:13.579469 260:0 261:0 262:0 263:0 264:0 265:0 266:30.020372 267:0 268:0 269:0 270:0 271:0 272:0 273:0 274:0 275:0 276:0 277:0 278:0 279:0 280:0 281:0 282:0 283:0 284:0 285:0 286:0 287:0 288:0 289:0 290:0 291:0 292:6.2474179 293:0 294:0 295:0 296:9.7343912 297:0 298:0 299:0 300:0 301:0 302:0 303:0 304:0 305:0 306:0 307:0.60216796 308:0 309:0 310:0 311:0 312:22.322285 313:0 314:0 315:0.24894941 316:0 317:12.902193 318:0 319:0 320:0 321:0 322:0 323:0 324:0 325:0 326:0 327:0 328:0 329:0 330:0 331:0 332:0 333:0 334:0 335:0 336:0 337:0 338:10.643333 339:0 340:0 341:0 342:0 343:15.957997 344:42.676449 345:0 346:0 347:0 348:0 349:0 350:0 351:0 352:0 353:0 354:0 355:0 356:0 357:0 358:0 359:0.1904242 360:12.143033 361:0 362:0 363:0 364:0 365:0 366:0 367:0 368:0.75539053 369:45.666912 370:0 371:0 372:0 373:0 374:29.036308 375:0 376:0 377:0 378:0 379:0 380:0 381:0 382:0 383:0 384:0 385:0 386:25.452394 387:0 388:0 389:0 390:0 391:0 392:0 393:0 394:0 395:0 396:0 397:0 398:4.3513851 399:0 400:0 401:0 402:0 403:0 404:0 405:0 406:0 407:0 408:0 409:0 410:0 411:0 412:0 413:0 414:76.653847 415:0 416:16.165915 417:0 418:0 419:0 420:0 421:0 422:0 423:0 424:0 425:0 426:0 427:0 428:0 429:0 430:0 431:0 432:4.0274849 433:0 434:0 435:0 436:0 437:0 438:0 439:0 440:0 441:22.484802 442:0 443:0 444:0 445:0 446:0 447:0 448:0 449:0 450:0 451:0 452:0 453:0 454:0 455:0 456:0 457:0 458:0 459:0 460:0 461:0 462:0 463:0 464:0 465:0 466:0 467:0 468:0 469:0 470:0 471:0 472:0 473:0 474:3.9457502 475:0 476:0 477:0 478:0 479:0 480:0 481:0 482:0 483:5.485568 484:0 485:0 486:0 487:0 488:0 489:0 490:0 491:0 492:0 493:0 494:0 495:0 496:0 497:0 498:34.079411 499:0 500:19.084562 501:0 502:0 503:0 504:0 505:0 506:0 507:0 508:0 509:0 510:0 511:0 
5.550524864278998e-16 0:0 1:0 2:0 3:0 4:0 5:0 6:0 7:1.5860782 8:0 9:0 10:0 11:31.234413 12:12.022089 13:0 14:0 15:0 16:0 17:0 18:0 19:0 20:0 21:38.953377 22:0 23:0 24:0.36256766 25:0 26:0 27:0 28:0 29:0 30:0 31:0 32:0 33:0 34:72.62001 35:0 36:0 37:0 38:0 39:0 40:39.525314 41:0 42:0 43:0 44:0 45:0 46:3.490624 47:0 48:0 49:0 50:0 51:0 52:0 53:0 54:0 55:2.4557168 56:0 57:6.2128448 58:0 59:0 60:0 61:0 62:0 63:0 64:0 65:0 66:0 67:13.242718 68:0 69:0 70:0 71:0 72:17.029419 73:18.239475 74:0 75:71.313774 76:108.40577 77:0 78:0 79:0 80:0 81:0 82:0 83:0 84:0 85:0 86:0 87:0 88:5.5979967 89:0 90:0 91:0 92:0 93:0 94:11.06211 95:23.781946 96:0 97:0 98:0 99:0 100:0 101:14.7349 102:0 103:0 104:0 105:0 106:0 107:0 108:0 109:0 110:0 111:0 112:0 113:0 114:0 115:0 116:0 117:22.793156 118:30.992451 119:0 120:0 121:0 122:0 123:25.031576 124:30.343391 125:0 126:0 127:23.979555 128:0 129:0 130:0 131:0 132:16.388105 133:0 134:0 135:0 136:0 137:0 138:0 139:0 140:8.2356224 141:0 142:0 143:16.080713 144:0 145:0 146:0 147:0 148:0 149:0 150:2.5247025 151:0 152:0 153:9.9331932 154:0 155:0.28893852 156:0 157:0 158:0 159:8.9348354 160:0 161:0.67638683 162:0 163:9.8922234 164:0 165:10.932303 166:0 167:0 168:0 169:0 170:0 171:0 172:41.653439 173:0 174:0 175:0 176:5.2385216 177:49.083881 178:0 179:13.063396 180:0 181:24.452183 182:0 183:0 184:21.982735 185:0 186:43.004852 187:0 188:0 189:0 190:0 191:54.844608 192:0 193:0 194:0 195:0 196:19.831844 197:0 198:0 199:0 200:0 201:0 202:0 203:0 204:0 205:0 206:0 207:0 208:79.688225 209:11.98036 210:1.9286666 211:0 212:0 213:0 214:0 215:0 216:0.62687337 217:0 218:0 219:0 220:0 221:0 222:0 223:0 224:0 225:3.8513808 226:0 227:0 228:0 229:1.8349586 230:0 231:34.836155 232:0 233:0 234:0 235:0 236:0 237:10.715974 238:0 239:0 240:0 241:0 242:0 243:0 244:0 245:0 246:0 247:0 248:0 249:0 250:0 251:0 252:0 253:0 254:8.2029982 255:0 256:0 257:0 258:0 259:0 260:0 261:15.673742 262:0 263:0 264:0 265:0 266:6.0110607 267:0 268:0 269:23.645166 270:0 271:0 272:0 273:0 274:0 275:0 276:0 277:0 278:0 279:0 280:0 281:3.2086284 282:0 283:0 284:0 285:0 286:0 287:0 288:0 289:0.96589911 290:0 291:0 292:0 293:0 294:0 295:0 296:13.532633 297:0.98587018 298:0.69160908 299:0 300:0 301:0 302:3.509376 303:3.4864082 304:0 305:0 306:0 307:0 308:0 309:0 310:0 311:0 312:0 313:0 314:0 315:0 316:0 317:0 318:0 319:0 320:0 321:0 322:0 323:0 324:0 325:0 326:0 327:0 328:0 329:0 330:0 331:0 332:0 333:0 334:0 335:0 336:0 337:0 338:13.194761 339:0 340:7.4848194 341:0 342:0 343:0 344:6.2023869 345:0 346:0 347:0 348:0 349:0 350:0 351:0 352:0 353:0 354:0 355:0 356:0 357:0 358:0 359:12.01706 360:0 361:0 362:0 363:0 364:0 365:0 366:0 367:0 368:0 369:0 370:0 371:0 372:64.176155 373:0 374:26.939579 375:0 376:0 377:0 378:0 379:11.050855 380:0 381:0 382:0 383:0 384:13.946994 385:0 386:0 387:7.2532544 388:0 389:0 390:0 391:0 392:10.43087 393:0 394:0 395:0 396:0 397:0 398:0 399:0 400:0 401:0 402:0 403:0 404:0 405:0 406:0 407:0 408:0 409:0 410:0 411:0 412:0 413:0 414:38.796516 415:0 416:54.524529 417:0 418:0 419:0 420:0 421:0 422:0 423:0 424:0 425:0 426:0 427:0 428:0 429:0 430:0 431:0 432:0 433:0 434:0 435:0 436:0 437:0 438:0 439:0 440:5.1384912 441:28.324589 442:0 443:0 444:8.6242266 445:0 446:0 447:52.764675 448:0 449:0 450:0 451:0 452:0 453:0 454:0 455:0 456:13.601812 457:0 458:0 459:0 460:0 461:0 462:0 463:0 464:0 465:21.345985 466:0 467:0 468:0 469:0 470:0 471:0 472:0 473:0 474:0 475:0 476:0 477:0 478:0 479:0 480:0 481:0 482:0 483:10.71818 484:0 485:0 486:0 487:0 488:0 489:18.188187 490:0 491:0 492:0 493:1.3348738 494:0 495:0 496:0 497:1.0802718 498:79.956123 499:0 500:75.188248 501:0 502:0 503:0 504:0 505:0 506:0 507:0 508:0 509:0 510:0 511:0 
8.127221147946715e-17 0:0 1:0 2:0 3:0 4:0 5:0 6:0 7:67.718216 8:0 9:0 10:0 11:0 12:69.003426 13:0 14:0 15:0 16:0 17:0 18:0 19:11.750408 20:0 21:115.91633 22:0 23:0 24:0 25:0 26:0 27:0 28:0 29:0 30:6.0413237 31:0 32:0 33:0 34:84.368965 35:0 36:0 37:0 38:0 39:0 40:0 41:0 42:6.4167581 43:0 44:0 45:0 46:0 47:0 48:0 49:0 50:5.9045906 51:0 52:0 53:0 54:0 55:0 56:0 57:0 58:3.8122506 59:0 60:0 61:0 62:0 63:0 64:0 65:0 66:0 67:0 68:0 69:0 70:0 71:0 72:0 73:28.088419 74:0 75:8.9624786 76:75.447983 77:0 78:0 79:0 80:0 81:0 82:0 83:0 84:0 85:0 86:0 87:0 88:29.807131 89:0 90:0 91:0 92:0 93:0 94:0 95:0 96:0 97:0 98:0 99:0 100:0 101:49.917023 102:0 103:0 104:0 105:0 106:0 107:0 108:0 109:0 110:0 111:0 112:0 113:0 114:0 115:0 116:0 117:56.481571 118:24.540606 119:0 120:0 121:0 122:0 123:3.319804 124:55.806355 125:0 126:0 127:7.5426602 128:0 129:0 130:0 131:0 132:0 133:0 134:0 135:0 136:0 137:0 138:0 139:0 140:0 141:0 142:0 143:0 144:0 145:0 146:4.3327174 147:0 148:0 149:0 150:0 151:0 152:0 153:16.906231 154:17.681648 155:10.736847 156:0 157:0 158:0 159:21.296633 160:0 161:0 162:0 163:0 164:0 165:0 166:0 167:0 168:0 169:0 170:0 171:0 172:51.268623 173:0 174:0 175:0 176:0.96938837 177:0 178:0 179:0 180:0 181:0 182:0 183:0 184:0 185:0 186:120.61488 187:0 188:0 189:0 190:0 191:3.2061038 192:0 193:0 194:0 195:0 196:0 197:0 198:0 199:0 200:0 201:0 202:0 203:0 204:0 205:0 206:0 207:0 208:0 209:0 210:0 211:0 212:0 213:0 214:0 215:0 216:20.078352 217:0 218:0 219:0 220:0 221:0 222:0 223:0 224:0 225:0 226:0 227:0 228:0 229:0 230:0 231:0 232:0 233:0 234:0 235:0 236:0 237:0 238:0 239:0 240:0 241:0 242:0 243:0 244:0 245:0 246:0 247:0 248:0 249:0 250:25.889534 251:0 252:0 253:0 254:0 255:0 256:0 257:0 258:0 259:0 260:0 261:10.769283 262:0 263:0 264:0 265:0 266:55.488773 267:0 268:0 269:0 270:0 271:0 272:0 273:0 274:0 275:0 276:0 277:0 278:0 279:0 280:0 281:0 282:0 283:4.6996512 284:0 285:0 286:0 287:0 288:0 289:0 290:0 291:0 292:0.35365874 293:0 294:0 295:0 296:43.800743 297:0 298:0 299:0 300:11.669298 301:0 302:0 303:0 304:0 305:0 306:0 307:25.658865 308:0 309:0 310:0 311:0 312:23.700354 313:0 314:0 315:4.5045247 316:10.746257 317:0 318:0 319:0 320:0 321:0 322:0 323:0 324:0 325:0 326:0 327:0 328:0 329:0 330:0 331:0 332:0 333:0 334:0 335:0 336:0 337:0 338:0 339:0 340:0 341:0 342:0 343:6.1216426 344:91.442009 345:0 346:0 347:0 348:0 349:0 350:0 351:0 352:0 353:0 354:0 355:0 356:0 357:0 358:0 359:0 360:0 361:0 362:0 363:0 364:0 365:0 366:0 367:0 368:5.8145847 369:0 370:0 371:0 372:18.510296 373:0 374:0 375:33.823708 376:0 377:0 378:0 379:0 380:9.1524229 381:0 382:0 383:0 384:0 385:0 386:29.140217 387:0 388:0 389:0 390:0 391:11.629987 392:0 393:0 394:0 395:0 396:0 397:0 398:0 399:0 400:0 401:0 402:0 403:0 404:0 405:0 406:0 407:0 408:0 409:0 410:31.748985 411:0 412:0 413:0 414:93.975159 415:0 416:21.61977 417:0 418:0 419:0 420:0 421:0 422:0 423:0 424:0 425:0 426:0 427:0 428:0 429:0 430:19.536554 431:0 432:0 433:0 434:0 435:0 436:0 437:0 438:0 439:0 440:0 441:23.620752 442:0 443:0 444:0 445:0 446:0 447:0 448:0 449:0 450:0 451:0 452:0 453:59.558643 454:0 455:0 456:0 457:0 458:12.714302 459:0 460:0 461:0 462:0 463:0 464:0 465:2.4032824 466:0 467:0 468:0 469:3.3080506 470:0 471:0 472:0 473:0 474:9.1033373 475:0 476:0 477:0 478:0 479:0 480:0 481:0 482:0 483:12.871156 484:0 485:0 486:0 487:0 488:0 489:54.284218 490:0 491:0 492:0 493:0 494:0 495:0 496:0 497:0 498:41.91811 499:0 500:0 501:0 502:0 503:0 504:0 505:0 506:0 507:0 508:0 509:0 510:0 511:0 
1.845153038226285e-15 0:0 1:0 2:0 3:0 4:0 5:0 6:0 7:36.589497 8:0 9:3.3228407 10:0 11:0 12:0 13:0 14:0 15:0 16:0 17:0 18:0 19:0 20:4.2887735 21:25.05246 22:0 23:0 24:0 25:0 26:0 27:0 28:0 29:0 30:0 31:0 32:0 33:0 34:47.467995 35:0 36:0 37:0 38:0 39:0 40:0 41:0 42:0 43:0 44:0 45:0 46:0 47:0 48:0 49:0 50:0 51:0 52:0 53:0 54:0 55:8.0806293 56:0 57:0 58:0 59:0 60:0 61:0 62:0 63:0 64:0 65:0 66:0 67:0 68:0 69:0 70:0 71:0 72:0 73:0 74:0 75:0 76:70.90992 77:0 78:0 79:0 80:0 81:0 82:0 83:0 84:0 85:0 86:0 87:0 88:0 89:0 90:0 91:0 92:0 93:0 94:19.735897 95:3.1756308 96:10.847639 97:0 98:0 99:0 100:0 101:0.45809126 102:0 103:0 104:0 105:0 106:0 107:0 108:0 109:0 110:11.986656 111:0 112:0 113:12.381887 114:0 115:0 116:0 117:0 118:0 119:0 120:0 121:0 122:0 123:0 124:92.97438 125:0 126:0 127:20.285686 128:0 129:0 130:0 131:0 132:0 133:0 134:0 135:0 136:0 137:0 138:0 139:0 140:0 141:0 142:0 143:0 144:0 145:0 146:0 147:0 148:0 149:0 150:10.568563 151:0 152:0 153:0 154:7.9031668 155:0 156:0 157:0 158:0 159:0 160:2.7652345 161:0 162:0 163:33.389042 164:0 165:0 166:0 167:0 168:0 169:0 170:0 171:0 172:81.554222 173:6.6606359 174:0 175:25.264374 176:0 177:0 178:0 179:0 180:0 181:0 182:0 183:0 184:0 185:0 186:0 187:17.032047 188:0 189:0 190:18.514692 191:0 192:0 193:0 194:0 195:0 196:0 197:0 198:0 199:0 200:0 201:0 202:0 203:0 204:0 205:0 206:0 207:0 208:0 209:0 210:0 211:0 212:0 213:0 214:6.2908764 215:0 216:22.917372 217:0 218:0 219:0 220:0 221:0 222:0 223:0 224:0 225:17.97168 226:0 227:0 228:0 229:0 230:0 231:0 232:0 233:0 234:0 235:0 236:0 237:0 238:0 239:0 240:4.4792809 241:4.2894783 242:0 243:0 244:0 245:0 246:0 247:0 248:0 249:0 250:0 251:0 252:0 253:0 254:0 255:0 256:0 257:8.5835123 258:0 259:3.919915 260:0 261:0 262:0 263:0 264:0 265:0 266:0 267:0 268:0 269:0 270:0 271:0 272:0 273:0 274:0 275:0 276:0 277:0 278:0 279:0 280:0 281:0 282:0 283:0 284:0 285:0 286:0 287:0 288:0 289:0 290:0 291:0 292:0 293:0 294:0 295:0 296:0 297:0 298:0 299:0 300:10.805633 301:0 302:0 303:0 304:0 305:0 306:0 307:28.309217 308:0 309:0 310:0 311:0 312:51.308331 313:0 314:0 315:0 316:0 317:0 318:0 319:0 320:0 321:0 322:0 323:0 324:0 325:0 326:0 327:0 328:21.634199 329:0 330:0 331:0 332:0 333:0 334:0 335:0 336:0 337:0 338:0 339:0 340:0 341:0 342:0 343:8.4427862 344:62.493252 345:0 346:0 347:0 348:0 349:0 350:0 351:0 352:0 353:0 354:0 355:0 356:0 357:0 358:0 359:26.016779 360:0 361:0 362:0 363:0 364:0 365:0 366:0 367:0 368:66.756096 369:0 370:0 371:0 372:0 373:0 374:0 375:0 376:0 377:0 378:0 379:0 380:0 381:0 382:0 383:0 384:0 385:7.9999776 386:0 387:0 388:4.3534646 389:0 390:0 391:0 392:0 393:0 394:0 395:0 396:0 397:0 398:0 399:0 400:0 401:0 402:0 403:0 404:0 405:0 406:0 407:0 408:0 409:0 410:0 411:0 412:7.3215652 413:0 414:0 415:0 416:0 417:0 418:0 419:0 420:0 421:0 422:0 423:0 424:0 425:0 426:0 427:0 428:0 429:30.017307 430:3.9642375 431:0 432:0 433:0 434:0 435:0 436:0 437:0 438:0 439:22.649231 440:0 441:0 442:0 443:0 444:0 445:0 446:0 447:0 448:0 449:0 450:0 451:0 452:0 453:2.4873927 454:24.370981 455:0 456:0 457:0 458:0 459:0 460:0 461:0 462:0 463:0 464:0 465:0 466:0 467:0 468:0 469:0 470:0 471:0 472:0 473:0 474:0 475:0 476:0 477:0 478:0 479:0 480:0 481:0 482:0 483:29.877415 484:0 485:0 486:0 487:0 488:0 489:14.746675 490:0 491:0 492:0 493:0 494:0 495:0 496:0 497:12.761436 498:0 499:0 500:0 501:0 502:0 503:0 504:30.526176 505:0 506:0 507:0 508:0 509:0 510:0 511:0 
1.348438680022728e-16 0:0 1:0 2:6.4070067 3:0 4:0 5:0 6:0 7:44.121243 8:0 9:0 10:0 11:0 12:30.817083 13:0 14:0 15:28.498514 16:0 17:0 18:0 19:0 20:33.400913 21:51.539093 22:0 23:0 24:0 25:0 26:0 27:0 28:9.192009 29:0 30:0 31:0 32:0 33:0 34:116.24364 35:0 36:0 37:0 38:0 39:0 40:60.966862 41:0 42:0 43:0 44:0 45:0 46:0 47:0 48:0 49:0 50:0 51:0 52:0 53:0 54:0 55:4.4932318 56:0 57:8.1413727 58:0 59:0 60:0 61:0 62:0 63:0 64:0 65:0 66:0 67:21.100765 68:0 69:0 70:0 71:9.0644026 72:0 73:0 74:0 75:26.493608 76:119.02631 77:0 78:0 79:0 80:0 81:0 82:4.9973183 83:11.345526 84:0 85:16.421715 86:0 87:0 88:5.8751545 89:0 90:0 91:0 92:0 93:0 94:0 95:7.5864906 96:0 97:0 98:0 99:4.0338364 100:0 101:27.102755 102:0 103:0 104:0 105:0 106:0 107:0 108:0 109:0 110:0 111:0 112:0 113:0 114:0 115:0 116:0 117:5.8506746 118:50.555943 119:0 120:0 121:0 122:0 123:20.828556 124:8.1232367 125:0 126:0 127:51.881863 128:0 129:9.4263029 130:0 131:0 132:0 133:0 134:0 135:0 136:0 137:0 138:0 139:0 140:0 141:0 142:0 143:0 144:0 145:0 146:0 147:0 148:0 149:0 150:0 151:0 152:0 153:19.527115 154:0 155:4.6286378 156:0 157:0 158:0 159:0 160:0 161:0 162:0 163:33.092079 164:0 165:0 166:0 167:0 168:0 169:0 170:0 171:0 172:46.127571 173:28.621092 174:0 175:34.759792 176:1.0920786 177:0 178:0 179:32.090984 180:0 181:0 182:0 183:0 184:31.564859 185:0 186:67.848381 187:0 188:0 189:0 190:0 191:0.98277116 192:0 193:0 194:0 195:0 196:0 197:0 198:0 199:0 200:0 201:0 202:0 203:0 204:0 205:0 206:0 207:0 208:0 209:0 210:10.194685 211:0 212:0 213:0 214:0 215:0 216:19.432329 217:0 218:0 219:0 220:0 221:0 222:0 223:0 224:0 225:44.247379 226:0 227:0 228:0 229:0 230:0 231:0 232:0 233:0 234:0 235:0 236:0 237:0 238:0 239:0 240:0 241:12.166993 242:0 243:0 244:0 245:0 246:14.544671 247:0 248:0 249:0 250:0 251:0 252:0 253:0 254:0 255:0 256:0 257:12.281753 258:0 259:0 260:0 261:65.111099 262:0 263:0 264:0 265:0 266:29.321793 267:0 268:0 269:0 270:0 271:0 272:0 273:0 274:0 275:0 276:0 277:0 278:0 279:0 280:0 281:0 282:0 283:0 284:0 285:0 286:0 287:0 288:0 289:0 290:0 291:0 292:0 293:0 294:21.270058 295:0 296:10.038433 297:0 298:0 299:0 300:51.579586 301:0 302:0 303:0 304:0 305:0 306:0 307:15.565489 308:0 309:0.48098814 310:0 311:0 312:13.120177 313:0 314:0 315:0 316:5.8068342 317:0 318:0 319:0 320:0 321:0 322:0 323:0 324:0 325:0 326:0 327:0 328:0 329:0 330:0 331:0 332:0 333:0 334:0 335:0 336:0 337:0 338:6.6382065 339:0 340:0 341:0 342:0 343:19.001358 344:71.42411 345:0 346:0 347:0 348:0 349:0 350:0 351:0 352:0 353:0 354:0 355:0 356:0 357:0 358:0 359:11.876359 360:0 361:0 362:0 363:0 364:0 365:0 366:0 367:0 368:33.326305 369:0.64341605 370:0 371:0 372:76.374184 373:0 374:0 375:0 376:0 377:0 378:0 379:6.3884048 380:0 381:0 382:0 383:0 384:0 385:0 386:3.0816066 387:0 388:0 389:0 390:0 391:0.17764449 392:20.744463 393:0 394:0 395:0 396:0 397:0 398:0 399:0 400:0 401:0 402:0 403:0 404:0 405:0 406:0 407:0 408:0 409:0 410:0 411:0 412:0 413:0 414:66.755325 415:0 416:21.16873 417:0 418:0 419:0 420:0 421:0 422:0 423:0 424:0 425:0 426:0 427:0 428:0 429:0 430:8.8540945 431:0 432:0 433:2.218096 434:0 435:0 436:0 437:0 438:0 439:0 440:25.48838 441:0 442:0 443:0 444:0 445:0 446:0 447:0 448:0 449:0 450:0 451:0 452:0 453:32.426098 454:0 455:0 456:0 457:0 458:11.741295 459:0 460:0 461:0 462:0 463:0 464:0 465:48.151569 466:0 467:0 468:0 469:0 470:0 471:0 472:33.748283 473:0 474:0 475:0 476:0 477:0 478:0 479:0 480:0 481:0 482:0 483:19.976633 484:0 485:0 486:0 487:0 488:0 489:21.542154 490:0 491:0 492:0 493:9.4991684 494:31.056501 495:0 496:0 497:1.717292 498:48.247978 499:0 500:41.525776 501:0 502:0 503:0 504:0 505:0 506:0 507:0 508:0 509:0 510:0 511:0 
1.1679529017953e-16 0:0 1:0 2:38.313572 3:0 4:0 5:0 6:0 7:34.69442 8:0 9:0 10:0 11:0 12:16.87904 13:0 14:0 15:4.0573115 16:0 17:0 18:0 19:0 20:13.127516 21:63.035721 22:0 23:0 24:0 25:0 26:0 27:0 28:8.5068913 29:0 30:0 31:4.393187 32:0 33:0 34:77.108902 35:0 36:0 37:0 38:0 39:0 40:38.233318 41:0 42:0 43:0 44:0 45:0 46:0 47:0 48:9.2947006 49:0 50:0.23386565 51:0 52:0 53:0 54:0 55:5.0883398 56:0 57:1.8019475 58:8.3913708 59:0 60:0 61:0 62:0 63:2.183243 64:0 65:0 66:0 67:19.605324 68:0 69:0 70:0 71:30.889462 72:0 73:0 74:0 75:11.176416 76:126.25599 77:0 78:0 79:0 80:0 81:0 82:0 83:11.482418 84:0 85:2.1532893 86:0 87:0 88:14.709263 89:0 90:0 91:0 92:0 93:0 94:0 95:13.683928 96:0 97:4.4084539 98:14.788153 99:0 100:0 101:32.89455 102:12.312487 103:1.2681878 104:0 105:0 106:0 107:0 108:0 109:0 110:14.043305 111:0 112:0 113:0 114:0 115:0 116:0 117:14.62119 118:60.234669 119:0 120:14.401023 121:0 122:0 123:0.80719227 124:22.356564 125:0 126:0 127:49.735577 128:0 129:0 130:0 131:0 132:0 133:0 134:0 135:0 136:19.369888 137:0 138:0 139:0 140:5.9418983 141:0 142:0 143:0 144:0 145:0 146:0 147:0 148:0 149:0 150:0 151:0 152:0 153:37.034275 154:0 155:9.0146599 156:0 157:0 158:0 159:0 160:0 161:27.024548 162:0 163:10.373671 164:0 165:4.7804818 166:0 167:0 168:0 169:13.284027 170:15.233217 171:0 172:52.712894 173:29.819448 174:0 175:45.826752 176:17.269527 177:9.6276636 178:0 179:19.3318 180:0 181:0 182:8.5185356 183:0 184:0.04573369 185:0 186:60.27467 187:0 188:0 189:0 190:0 191:10.261383 192:0 193:0 194:0 195:0 196:0 197:0 198:0 199:0 200:0 201:0 202:0 203:0 204:0 205:0 206:0 207:0 208:0 209:0 210:18.274603 211:0 212:0 213:0 214:8.3258238 215:0 216:67.736557 217:0 218:0 219:0 220:0 221:0 222:10.142239 223:0 224:0 225:21.936478 226:0 227:0 228:0 229:0 230:0 231:0 232:0 233:0 234:0 235:0 236:0 237:0 238:0 239:0 240:9.9458132 241:32.836132 242:0 243:0 244:10.878684 245:0 246:20.953398 247:0 248:0 249:0 250:0 251:0 252:0 253:8.5583134 254:0 255:0 256:0 257:3.7672963 258:0 259:0 260:0 261:39.379166 262:0 263:17.360523 264:0 265:0 266:15.7905 267:0 268:0 269:0 270:0 271:0 272:0 273:0 274:0 275:0 276:0 277:0 278:0 279:0 280:0 281:0 282:0 283:0 284:0 285:0 286:0 287:0 288:0 289:1.3067912 290:0 291:0 292:0 293:0 294:13.614038 295:0 296:18.11307 297:0 298:0 299:0 300:27.466787 301:0 302:0 303:0 304:0 305:0 306:0 307:24.502907 308:0 309:13.576115 310:0 311:0 312:31.396437 313:0 314:0 315:0 316:19.491816 317:0 318:7.5525203 319:0 320:0.50478947 321:0 322:0 323:0 324:0 325:0 326:0 327:0 328:8.9833212 329:0 330:0 331:0 332:0 333:0 334:0 335:0 336:0 337:0 338:8.7793322 339:0 340:0 341:0 342:0 343:16.615957 344:56.908394 345:0.3786782 346:0 347:0 348:0 349:0 350:0 351:0 352:0 353:8.3581381 354:0 355:11.210298 356:0 357:0 358:0 359:3.8872774 360:0 361:0 362:0 363:0 364:0 365:0 366:0 367:0 368:49.265491 369:0.73627174 370:0 371:0 372:66.027939 373:0 374:0 375:0 376:0 377:0 378:0 379:9.083292 380:0 381:0 382:0 383:0 384:12.920915 385:0 386:8.0198622 387:0 388:6.254334 389:0 390:0 391:0 392:35.309441 393:0 394:0 395:0 396:0 397:1.3747295 398:0 399:0 400:0 401:0 402:0 403:0 404:0 405:0 406:0 407:0 408:0 409:0 410:11.979873 411:0 412:4.8203545 413:0 414:54.549381 415:0 416:16.351892 417:0 418:0 419:0 420:0 421:0 422:0 423:0 424:0 425:0 426:0 427:0 428:0 429:0 430:7.2845573 431:0 432:12.903953 433:29.177647 434:8.487524 435:0 436:0 437:0 438:0 439:0 440:6.7210889 441:0 442:0 443:0 444:0 445:8.3574791 446:0 447:0 448:0 449:0 450:0 451:0 452:7.0509324 453:34.26532 454:0 455:0 456:0 457:0 458:3.180887 459:0 460:0 461:0 462:0 463:0 464:0 465:41.623543 466:0 467:0 468:0 469:11.327804 470:0 471:0 472:31.86417 473:0 474:0 475:0 476:0 477:0 478:0 479:0 480:0 481:0 482:0.41946045 483:17.002539 484:0 485:0 486:0 487:11.391316 488:0 489:42.048801 490:0 491:0 492:0 493:36.413551 494:0 495:0 496:0 497:24.658319 498:68.730003 499:0 500:46.263794 501:0 502:0 503:3.9396603 504:18.082342 505:0 506:0 507:0 508:0 509:0 510:0 511:0 
